// Automatically generated by train_and_generate.py
// Simple Neural Network for Next Character Prediction

#ifndef PREDICTOR_H
#define PREDICTOR_H

#include <algorithm>
#include <cctype>
#include <cmath>
#include <iomanip>
#include <iostream>
#include <math.h>

// --- Model Parameters (Learned Weights and Biases) ---
const float weights1[87][32] = {
    {-0.058824267238378525f, 0.5071747899055481f,   -0.08671067655086517f, 0.10286479443311691f,
     -0.1636047512292862f,   0.14922046661376953f,  0.5965173840522766f,   -0.38987627625465393f,
     0.2775801718235016f,    0.14716362953186035f,  0.7762261629104614f,   0.5025535225868225f,
     -0.35131189227104187f,  -0.6368333697319031f,  -0.22466710209846497f, -0.19497869908809662f,
     -0.5843653082847595f,   0.17908193171024323f,  -0.3306031823158264f,  0.5064059495925903f,
     -0.0847448781132698f,   -0.36386388540267944f, -0.13047780096530914f, 0.16236428916454315f,
     0.20490662753582f,      0.01370439026504755f,  0.17811106145381927f,  -0.0987982228398323f,
     0.008375094272196293f,  -0.49869388341903687f, -0.4861774742603302f,  -0.0586078017950058f},
    {0.3127163350582123f,   -1.069667100906372f,  0.3526741862297058f,   -0.43455034494400024f,
     0.39801567792892456f,  -0.781563937664032f,  -0.2806497812271118f,  0.11781114339828491f,
     -0.05970580875873566f, 0.45275381207466125f, -1.2314611673355103f,  -0.8913509249687195f,
     0.3584882318973541f,   0.48580628633499146f, 0.1317548304796219f,   -0.06798972189426422f,
     0.3092433214187622f,   -0.5056780576705933f, -0.16502627730369568f, -1.047540545463562f,
     0.1902768760919571f,   0.8369942903518677f,  -0.12448174506425858f, 0.05967719480395317f,
     -0.46471869945526123f, 0.18401800096035004f, -0.5705127716064453f,  -0.7021570205688477f,
     -0.4183662235736847f,  0.6767652630805969f,  0.5689908266067505f,   0.5448314547538757f},
    {0.9982194900512695f,   0.5083438754081726f,  0.07995571941137314f,  -0.05625321343541145f,
     0.4378593862056732f,   0.07167578488588333f, 0.926378071308136f,    0.597781777381897f,
     0.39654767513275146f,  -0.1744070053100586f, 0.6335055232048035f,   0.23816296458244324f,
     0.18392108380794525f,  -1.0556334257125854f, 0.27683448791503906f,  -0.6208400726318359f,
     0.08704133331775665f,  0.4138738512992859f,  0.2917253375053406f,   0.0892406702041626f,
     -0.12766708433628082f, -0.5566269755363464f, 0.010366364382207394f, 0.47516268491744995f,
     0.11827116459608078f,  -0.2746642529964447f, 0.3570624589920044f,   0.0009976776782423258f,
     0.417228639125824f,    0.5393882393836975f,  -0.06596386432647705f, 0.525011420249939f},
    {-0.16149552166461945f, 0.025535712018609047f, 0.4010651409626007f,     0.40341514348983765f,
     -0.13245902955532074f, 0.043980538845062256f, 0.39019352197647095f,    -0.11493810266256332f,
     -0.04469066485762596f, -0.14162668585777283f, 0.5796796083450317f,     -0.15898634493350983f,
     -0.09455547481775284f, 0.3371451199054718f,   0.07916755229234695f,    0.2544553875923157f,
     -0.45122581720352173f, -0.2687152028083801f,  0.014514426700770855f,   -0.07975301891565323f,
     0.4375922381877899f,   -0.08838773518800735f, -0.3275022506713867f,    0.5108063817024231f,
     0.2834343910217285f,   0.2027333825826645f,   -0.0072562736459076405f, 0.3390250504016876f,
     -0.03526271507143974f, -0.10827949643135071f, -0.04775237292051315f,   0.6152542233467102f},
    {0.048125721514225006f, -0.054556794464588165f, 0.40273308753967285f,  0.32770824432373047f,
     -0.34509482979774475f, 0.3405110538005829f,    -0.22291795909404755f, 0.4000404179096222f,
     0.14298571646213531f,  0.2354850322008133f,    0.281089186668396f,    0.3293788731098175f,
     0.2579607665538788f,   0.34131842851638794f,   0.06514133512973785f,  -0.18487679958343506f,
     -0.03322790190577507f, 0.14346033334732056f,   -0.36045899987220764f, -0.14309336245059967f,
     0.12853765487670898f,  0.031090732663869858f,  0.2786940038204193f,   0.2089797556400299f,
     0.3111608028411865f,   0.13196808099746704f,   0.23197638988494873f,  -0.2578533887863159f,
     0.09410527348518372f,  -0.5228481888771057f,   -0.24212948977947235f, 0.03969381004571915f},
    {0.3437954783439636f,  -0.01874455250799656f, 0.4150087237358093f,    0.9076562523841858f,
     0.08982186019420624f, 0.18758900463581085f,  0.2544335424900055f,    0.9974462389945984f,
     -0.9937766194343567f, 0.2816741466522217f,   -0.029637761414051056f, -1.6477124691009521f,
     1.232000708580017f,   0.8604159355163574f,   -0.46072256565093994f,  -0.4195575714111328f,
     0.37837186455726624f, 0.11904275417327881f,  0.3491118550300598f,    -0.7063921093940735f,
     0.7817384600639343f,  1.0035216808319092f,   0.08636116236448288f,   0.2710380256175995f,
     0.6375765204429626f,  0.302751749753952f,    0.1472644954919815f,    0.02303183078765869f,
     0.548416793346405f,   -0.5958638787269592f,  0.15477415919303894f,   0.45758944749832153f},
    {0.036092281341552734f, 0.6618364453315735f,   0.030439212918281555f, 0.09085481613874435f,
     -0.30430957674980164f, -0.01760745979845524f, 0.4494391977787018f,   0.49975353479385376f,
     -0.1311429738998413f,  0.5614414811134338f,   0.021893750876188278f, 0.10722585022449493f,
     -0.31686732172966003f, 0.261906236410141f,    0.33512625098228455f,  0.3684399127960205f,
     0.2476058006286621f,   0.30020296573638916f,  0.25884145498275757f,  0.5261387825012207f,
     -0.24047881364822388f, 0.2842402756214142f,   0.04229850694537163f,  -0.14316309988498688f,
     0.10565997660160065f,  0.04884503036737442f,  0.13152383267879486f,  0.16053910553455353f,
     0.28874078392982483f,  -0.7317247986793518f,  -0.1776919960975647f,  0.3813855051994324f},
    {-0.01725154183804989f, -0.12197895348072052f, 0.4338212013244629f,  -0.04345707595348358f,
     -0.4262649118900299f,  0.6423925757408142f,   -1.2683343887329102f, -0.3972243070602417f,
     0.16322019696235657f,  0.949578583240509f,    -0.3110911548137665f, 0.5695391893386841f,
     -0.26079708337783813f, 0.4758723974227905f,   0.19523808360099792f, -0.06645084172487259f,
     0.3707564175128937f,   0.12048418819904327f,  0.23013153672218323f, -0.43822985887527466f,
     0.20714633166790009f,  0.7099441885948181f,   0.5171090364456177f,  -0.5674140453338623f,
     -0.24421703815460205f, 0.07436079531908035f,  0.2577331066131592f,  0.4460371136665344f,
     0.07738891988992691f,  0.061885129660367966f, 0.3141307532787323f,  -0.9476091861724854f},
    {-0.36336541175842285f, 0.31150877475738525f,  0.028614696115255356f, 0.13500739634037018f,
     -0.43478184938430786f, 0.6798091530799866f,   0.18324719369411469f,  0.08938884735107422f,
     0.2065141499042511f,   0.1789894849061966f,   0.34986361861228943f,  0.10575367510318756f,
     0.531790554523468f,    -0.35454627871513367f, 0.7553280591964722f,   0.11630795896053314f,
     0.15506252646446228f,  -0.04640910029411316f, -0.8325669765472412f,  1.0193241834640503f,
     0.0803234726190567f,   0.04368027299642563f,  0.40126243233680725f,  0.0686279907822609f,
     0.47448599338531494f,  0.09388189017772675f,  -0.22496339678764343f, -0.0005049847532063723f,
     -0.323805570602417f,   -0.38379982113838196f, -0.5182098746299744f,  0.3794478476047516f},
    {0.32624199986457825f,  1.5369025468826294f,    -0.1822464019060135f, -0.687995433807373f,
     -0.44982999563217163f, -2.583339214324951f,    0.9636193513870239f,  0.05750203877687454f,
     1.1223045587539673f,   -0.32896512746810913f,  -0.6255433559417725f, 0.9345166683197021f,
     -0.49123600125312805f, -0.7021642923355103f,   -1.2243129014968872f, 1.8716506958007812f,
     0.5844165086746216f,   0.28535693883895874f,   -1.4517767429351807f, 0.3326353132724762f,
     0.9919624924659729f,   0.7349764704704285f,    -1.62586510181427f,   1.2755107879638672f,
     0.5545100569725037f,   0.0035950264427810907f, -0.5588234066963196f, 0.4924134910106659f,
     0.8285350799560547f,   0.7924512028694153f,    -0.5440483689308167f, -0.013352255336940289f},
    {0.2362760454416275f,   -0.01527442317456007f, 0.32468849420547485f,   0.36101412773132324f,
     0.37652039527893066f,  0.08569718897342682f,  0.17472951114177704f,   -0.06661557406187057f,
     0.052628204226493835f, 0.14217016100883484f,  0.008776362054049969f,  0.054848119616508484f,
     -0.2367180734872818f,  0.16961945593357086f,  0.37616345286369324f,   0.05487487465143204f,
     0.19641445577144623f,  -0.03796044737100601f, -0.08961821347475052f,  -0.2212044596672058f,
     0.20181135833263397f,  0.10809972137212753f,  -0.3852890431880951f,   0.20041927695274353f,
     -0.14290054142475128f, 0.011270560324192047f, -0.28599169850349426f,  0.3739910125732422f,
     0.09179534018039703f,  0.27816081047058105f,  -0.030464475974440575f, -0.23624767363071442f},
    {0.451936811208725f,    0.04995867237448692f,   0.5424739122390747f,  -0.4951871633529663f,
     -0.20778048038482666f, -1.1490273475646973f,   0.6131695508956909f,  0.2368677258491516f,
     -0.5235403180122375f,  0.0023499943781644106f, 0.41127851605415344f, 0.22881406545639038f,
     0.03858571499586105f,  -0.297019362449646f,    -0.6679864525794983f, 0.22521169483661652f,
     0.06930128484964371f,  -0.09718012064695358f,  0.12603263556957245f, -0.29697534441947937f,
     0.1041918694972992f,   -0.006844400428235531f, 0.532460629940033f,   0.43832406401634216f,
     0.25068703293800354f,  0.7560855746269226f,    0.2819935381412506f,  0.11796112358570099f,
     0.233642578125f,       0.5028879046440125f,    0.44355568289756775f, 0.601899266242981f},
    {-0.09180763363838196f, 0.4467892348766327f,   0.07944758236408234f,  -0.11216076463460922f,
     0.10054561495780945f,  0.1708437204360962f,   0.7306166291236877f,   0.017782175913453102f,
     0.03392552211880684f,  -0.4136638939380646f,  0.7050305604934692f,   0.3161903917789459f,
     0.5227291584014893f,   -0.7312626242637634f,  -0.2977100908756256f,  -0.07552621513605118f,
     -0.13227877020835876f, -0.21604369580745697f, 0.413948118686676f,    -0.17702245712280273f,
     0.03135400637984276f,  0.3357201814651489f,   -0.47663724422454834f, 0.09481687098741531f,
     0.5026349425315857f,   0.15468379855155945f,  -0.03000991977751255f, -0.23470351099967957f,
     0.31806129217147827f,  0.8681823015213013f,   0.4806291460990906f,   0.21752464771270752f},
    {-0.11302503198385239f, 0.1298622488975525f,   0.13586050271987915f,   0.2461284101009369f,
     -0.11364614963531494f, 0.19362732768058777f,  0.1440427005290985f,    0.2396439015865326f,
     -0.458296000957489f,   -0.1648908257484436f,  0.18614894151687622f,   -0.220566064119339f,
     -0.6222968101501465f,  0.27631619572639465f,  -0.048215243965387344f, 0.013355677947402f,
     -0.09275723993778229f, 0.03298308700323105f,  0.2441023588180542f,    -0.3011370301246643f,
     0.04761581867933273f,  0.08412174880504608f,  0.13488362729549408f,   -0.059978872537612915f,
     0.28272417187690735f,  0.11978821456432343f,  -0.23057910799980164f,  0.04574048891663551f,
     0.06924708187580109f,  -0.23685285449028015f, -0.18159079551696777f,  0.33406686782836914f},
    {-0.21524342894554138f, 0.12305913120508194f,  0.2792193591594696f,   0.2623628079891205f,
     -0.10263902693986893f, 0.753751814365387f,    -0.283917635679245f,   0.5573605895042419f,
     0.15579278767108917f,  0.30884653329849243f,  -0.1972125619649887f,  0.11704064905643463f,
     0.5062946677207947f,   -0.07040522247552872f, 0.44570374488830566f,  0.14145046472549438f,
     0.3087244927883148f,   0.3524366319179535f,   -0.3949841260910034f,  0.15180276334285736f,
     0.25497865676879883f,  0.4259457588195801f,   0.4509345591068268f,   -0.03589756414294243f,
     0.5650479197502136f,   0.33371514081954956f,  -0.07535982131958008f, 0.16804681718349457f,
     0.2141483575105667f,   0.03105839528143406f,  0.07440183311700821f,  0.09703332185745239f},
    {0.9879819750785828f,    0.001814121613278985f,  -0.18292149901390076f, -0.023107239976525307f,
     0.6473286151885986f,    -0.42261791229248047f,  0.5181189775466919f,   0.4741194546222687f,
     0.21947482228279114f,   -0.023360643535852432f, 0.37007981538772583f,  -0.0871225968003273f,
     0.06450054794549942f,   0.2792971432209015f,    0.2651641368865967f,   -0.4887089729309082f,
     -0.004559935536235571f, 0.22199681401252747f,   0.26083195209503174f,  -0.06536189466714859f,
     -0.5602469444274902f,   0.09997174888849258f,   0.42719128727912903f,  0.2627878189086914f,
     -0.08374567329883575f,  0.5623471140861511f,    -0.49231910705566406f, 0.22895045578479767f,
     0.6525683403015137f,    0.0640375018119812f,    -0.7221783995628357f,  0.6106882095336914f},
    {0.41818246245384216f,  0.22799532115459442f,  -1.3652172088623047f,  -1.6332157850265503f,
     -0.06300307810306549f, 0.008588111028075218f, -0.830276370048523f,   0.23302079737186432f,
     0.22906076908111572f,  -0.3117254376411438f,  0.21820709109306335f,  0.46269169449806213f,
     0.21166186034679413f,  0.4665887951850891f,   -1.5478278398513794f,  0.6778987050056458f,
     1.010873794555664f,    0.6205617189407349f,   -0.42999857664108276f, -0.41503703594207764f,
     0.4711631238460541f,   0.9045565128326416f,   0.1875012218952179f,   0.11991044133901596f,
     0.014068005606532097f, 0.271127849817276f,    0.4690835773944855f,   -0.6134659051895142f,
     0.46113353967666626f,  0.2452864646911621f,   -0.5913664102554321f,  0.2200683057308197f},
    {-0.27027589082717896f, -0.2517075538635254f,    0.16116760671138763f,    0.16488702595233917f,
     0.013125704601407051f, 0.12158060073852539f,    0.32467401027679443f,    -0.21271750330924988f,
     -0.41878634691238403f, -0.27587708830833435f,   0.5367130637168884f,     0.11106465011835098f,
     -0.14856119453907013f, 0.2787646949291229f,     -0.2319399118423462f,    -0.01743777096271515f,
     -0.3326593041419983f,  -0.0006643618689849973f, 0.2153327912092209f,     -0.11086294800043106f,
     0.6292548179626465f,   0.20796966552734375f,    -0.5492724180221558f,    0.40959009528160095f,
     0.20132912695407867f,  0.2045891135931015f,     -0.0023055346682667732f, 0.38583827018737793f,
     0.10684876143932343f,  0.413354754447937f,      -0.16262012720108032f,   0.21085239946842194f},
    {-0.03445092588663101f, 0.2565564811229706f,   0.1634543538093567f,   -0.192709818482399f,
     -0.08349732309579849f, 0.33670470118522644f,  0.26855751872062683f,  -0.02948794886469841f,
     0.34775352478027344f,  0.071523018181324f,    0.5103939771652222f,   0.6722765564918518f,
     0.053903307765722275f, -0.2875198423862457f,  0.177141934633255f,    0.4711718261241913f,
     0.35552340745925903f,  -0.10508915781974792f, 0.4810841381549835f,   -0.004700064193457365f,
     -0.10832733660936356f, 0.3504425883293152f,   0.0875113308429718f,   -0.03337699919939041f,
     0.2669491171836853f,   0.33460596203804016f,  0.026067260652780533f, 0.20820890367031097f,
     0.37221890687942505f,  0.15826022624969482f,  0.048773787915706635f, -0.5329955816268921f},
    {0.5294007658958435f,   0.7114377617835999f,    0.285823792219162f,    0.15465927124023438f,
     0.27166154980659485f,  -0.5584522485733032f,   0.34074223041534424f,  0.38658323884010315f,
     0.13104842603206635f,  0.8297217488288879f,    -0.27420300245285034f, -0.10997962951660156f,
     -0.05783688649535179f, 0.4407825469970703f,    0.015302770771086216f, 0.38398006558418274f,
     0.12669867277145386f,  0.20195092260837555f,   0.36475780606269836f,  0.2994287312030792f,
     0.44170019030570984f,  0.4472545385360718f,    0.03958248719573021f,  0.24622662365436554f,
     0.11592456698417664f,  0.4124141335487366f,    0.11558574438095093f,  0.40460267663002014f,
     0.32451170682907104f,  -0.033725567162036896f, 0.11452530324459076f,  0.36648640036582947f},
    {-0.5413037538528442f,  0.05287238582968712f,   -0.3577386140823364f,  0.26716533303260803f,
     -0.2667268216609955f,  0.0818297266960144f,    0.13617023825645447f,  0.4902056157588959f,
     -0.03238362446427345f, -0.06902721524238586f,  0.4668421447277069f,   0.08236566931009293f,
     -0.10416776686906815f, -0.20385389029979706f,  -0.17271217703819275f, -0.07678218930959702f,
     -0.1914597600698471f,  0.19282913208007812f,   -0.5735224485397339f,  0.2216976433992386f,
     0.35125964879989624f,  0.5277999043464661f,    0.15553005039691925f,  0.2368234246969223f,
     0.2593538463115692f,   0.0033917096443474293f, -0.2561086118221283f,  -0.06509318202733994f,
     -0.13334254920482635f, -0.144766166806221f,    -0.9914895296096802f,  0.2523534297943115f},
    {-0.26602375507354736f, -0.8135611414909363f,   0.3478145897388458f,  0.4480128884315491f,
     0.06806610524654388f,  0.3748880624771118f,    0.23562127351760864f, -0.3336603045463562f,
     0.24976123869419098f,  -0.010514254681766033f, 0.19393931329250336f, 0.08161376416683197f,
     -0.3168710470199585f,  0.6477517485618591f,    0.24571070075035095f, 0.3075074553489685f,
     -0.7227219939231873f,  -0.17990045249462128f,  0.4221706986427307f,  0.14797045290470123f,
     0.2580190896987915f,   0.8400418758392334f,    -0.8295681476593018f, 0.4010320007801056f,
     -0.14638465642929077f, -0.11743981391191483f,  -0.5943860411643982f, 0.6017371416091919f,
     -0.6241035461425781f,  -0.29083582758903503f,  -0.3065929412841797f, -0.26978835463523865f},
    {0.5316329002380371f,  1.0051716566085815f,   -0.14497193694114685f, 0.6340522766113281f,
     1.3009424209594727f,  0.2842520773410797f,   -0.7234575152397156f,  -0.02474590577185154f,
     0.2598118782043457f,  -0.05159136652946472f, 0.07558095455169678f,  -1.2371307611465454f,
     0.47171708941459656f, 0.8883675336837769f,   0.7221726775169373f,   1.0166573524475098f,
     0.459189236164093f,   0.5773673057556152f,   0.734679102897644f,    0.13959452509880066f,
     0.465471088886261f,   -1.016480803489685f,   1.5799742937088013f,   -0.7583439946174622f,
     0.33356648683547974f, 0.75654137134552f,     0.1855933964252472f,   0.13060301542282104f,
     0.8601312041282654f,  0.24008072912693024f,  0.08704991638660431f,  1.04853093624115f},
    {0.07064788043498993f,  0.3478277325630188f,  0.3958387076854706f,   -0.21457412838935852f,
     -0.14285850524902344f, -0.2964182496070862f, 0.13892196118831635f,  0.004827076103538275f,
     0.23274435102939606f,  -0.2119443416595459f, 0.17428220808506012f,  0.2638046443462372f,
     0.22235305607318878f,  0.26750725507736206f, -0.0997866615653038f,  0.3287625312805176f,
     0.7459517121315002f,   -0.2331114560365677f, 0.019210085272789f,    -0.5011554956436157f,
     0.7113967537879944f,   0.6715679168701172f,  -0.2061348706483841f,  0.3890044391155243f,
     -0.20308388769626617f, 0.10094807296991348f, 0.30268195271492004f,  -0.3319949507713318f,
     0.2966872453689575f,   0.10449831187725067f, -0.45038703083992004f, -0.5303464531898499f},
    {0.08706329017877579f,  0.29197120666503906f,  0.39887890219688416f,    -0.21519474685192108f,
     0.17029260098934174f,  -0.16843926906585693f, -0.1666070818901062f,    0.4018990695476532f,
     0.019367031753063202f, 0.1132415384054184f,   -0.49921631813049316f,   -0.25800344347953796f,
     0.25950732827186584f,  0.14450843632221222f,  -0.16232267022132874f,   -0.1163545623421669f,
     0.14608429372310638f,  0.49963685870170593f,  -0.0040426054038107395f, 0.04177168756723404f,
     -0.06985235959291458f, 0.20649780333042145f,  0.35873275995254517f,    -0.0752129852771759f,
     0.16834470629692078f,  0.15774422883987427f,  -0.05147067457437515f,   -0.20553350448608398f,
     0.15317410230636597f,  -0.0869625061750412f,  0.07702645659446716f,    0.1822604238986969f},
    {-0.11876359581947327f, 1.3024470806121826f,   -0.19574235379695892f, -0.37315475940704346f,
     -0.11116814613342285f, 1.0171281099319458f,   0.3461148738861084f,   0.1907092034816742f,
     0.3677724599838257f,   1.1557031869888306f,   -0.1464296132326126f,  0.19603747129440308f,
     0.15603618323802948f,  -0.15933693945407867f, 0.06867633759975433f,  0.5778217911720276f,
     -0.05829867720603943f, 0.8611648678779602f,   0.17727026343345642f,  -0.015945876017212868f,
     0.20915596187114716f,  -0.03424064815044403f, 0.12120559811592102f,  0.483449250459671f,
     -0.02936144359409809f, 1.0092419385910034f,   -0.6196455955505371f,  0.7688241004943848f,
     -0.5436701774597168f,  0.10334610193967819f,  -0.19664910435676575f, 0.18798477947711945f},
    {0.3323683738708496f,  -0.6638951897621155f,  -0.31445783376693726f, -0.36343416571617126f,
     0.5657301545143127f,  0.254251092672348f,    -0.8462895750999451f,  -0.21903175115585327f,
     0.2333519011735916f,  -0.13359768688678741f, -0.31974488496780396f, 0.35155221819877625f,
     -0.1906391978263855f, 0.013166376389563084f, 0.5302749872207642f,   -0.13538794219493866f,
     0.6710509061813354f,  -0.14789807796478271f, 0.3976435363292694f,   0.45575931668281555f,
     -0.6928620934486389f, -0.09711924940347672f, -0.2824573218822479f,  -0.7510241866111755f,
     -0.6040450930595398f, -0.7596604228019714f,  0.4147182106971741f,   -1.617092251777649f,
     -0.2917253375053406f, 0.6324820518493652f,   0.78556889295578f,     -0.31226417422294617f},
    {0.37759703397750854f,  -0.4350302517414093f,  0.6278671622276306f,   -0.5435305833816528f,
     0.13170433044433594f,  -0.14108331501483917f, 0.14161114394664764f,  -0.4297020137310028f,
     0.3359878957271576f,   0.11733312904834747f,  0.04064731299877167f,  0.32896193861961365f,
     -0.7318570613861084f,  -0.3061595857143402f,  0.041430361568927765f, 0.4323538839817047f,
     0.697265088558197f,    0.8947984576225281f,   -1.3597450256347656f,  -0.34063082933425903f,
     -0.2899461090564728f,  0.1269342005252838f,   0.23135843873023987f,  0.2376411110162735f,
     -0.06476787477731705f, 0.31593480706214905f,  0.34216493368148804f,  -0.08130380511283875f,
     0.11590118706226349f,  0.26045700907707214f,  0.6983710527420044f,   -0.003171222982928157f},
    {-0.10318759083747864f, 0.12464267015457153f,  0.18229389190673828f,   -0.1674848347902298f,
     0.07523801922798157f,  -1.9210336208343506f,  -0.06302089989185333f,  -0.36447781324386597f,
     0.27742716670036316f,  0.14090652763843536f,  -0.054296694695949554f, -0.14163801074028015f,
     -0.7575187683105469f,  -0.2510175406932831f,  -0.5409060716629028f,   0.0617603100836277f,
     -0.6469109654426575f,  0.522240936756134f,    0.8366916179656982f,    0.10163161903619766f,
     0.07501877844333649f,  -0.02336416020989418f, 0.11369923502206802f,   -0.02340611442923546f,
     0.03518010675907135f,  0.08442799746990204f,  -0.19592642784118652f,  0.0036251163110136986f,
     -0.29761558771133423f, 0.13279595971107483f,  0.6870604753494263f,    -0.07675904035568237f},
    {1.000698208808899f,    0.11636533588171005f,  -0.04350351542234421f, -1.2215678691864014f,
     1.3462891578674316f,   0.6959463953971863f,   -0.4635496139526367f,  0.2233504205942154f,
     0.162458136677742f,    0.3833654224872589f,   0.16702894866466522f,  0.2123112678527832f,
     -0.20952382683753967f, -0.38856878876686096f, -0.2409822791814804f,  -1.3656179904937744f,
     -0.34095337986946106f, 0.6370984315872192f,   0.11855264008045197f,  -0.11322751641273499f,
     -0.04481765627861023f, -1.0128076076507568f,  0.9803389310836792f,   -0.47648683190345764f,
     0.869861364364624f,    0.07674911618232727f,  0.6017326712608337f,   -0.27621379494667053f,
     1.0091742277145386f,   -0.0767458826303482f,  -0.4220632314682007f,  0.8438042402267456f},
    {-0.06281764060258865f, 0.011912974528968334f, -0.20192749798297882f,  -0.07558219879865646f,
     -0.15120235085487366f, 0.13657599687576294f,  -0.7782183885574341f,   0.48729467391967773f,
     -0.06118253245949745f, 0.3829774856567383f,   0.24262933433055878f,   -0.3937113583087921f,
     -0.518575131893158f,   0.2737278640270233f,   0.10129792988300323f,   -0.13166892528533936f,
     0.4881899356842041f,   0.8237863779067993f,   -0.2511046826839447f,   0.07887069880962372f,
     -0.06777239590883255f, 0.6700666546821594f,   -0.11033263802528381f,  -1.1803940534591675f,
     0.14820131659507751f,  -0.29341134428977966f, -0.7865727543830872f,   0.2275179922580719f,
     -0.8660964965820312f,  0.9500080347061157f,   -0.008284036070108414f, 0.034645095467567444f},
    {0.1417243331670761f,   0.6620773673057556f,   0.9283648133277893f,  0.09957265108823776f,
     -0.3620055019855499f,  -0.6060857772827148f,  -0.282219797372818f,  0.9064484238624573f,
     0.42107734084129333f,  -0.24527812004089355f, 0.30092594027519226f, 0.3024120032787323f,
     0.547918438911438f,    0.18673624098300934f,  -0.6729081869125366f, 0.7818395495414734f,
     -0.23233480751514435f, 0.23000840842723846f,  0.5064492225646973f,  -0.07430866360664368f,
     1.464592456817627f,    0.999728262424469f,    0.1364155113697052f,  0.6370427012443542f,
     0.4124191701412201f,   1.1038579940795898f,   -0.5687568187713623f, -0.08908481150865555f,
     0.36019614338874817f,  -0.46167999505996704f, 0.6501094698905945f,  -0.5162192583084106f},
    {-0.7928508520126343f,  0.24830955266952515f,  0.3599451780319214f,  -0.05339570343494415f,
     -0.3773462772369385f,  0.007769096177071333f, 0.3520059287548065f,  -0.09214290231466293f,
     0.44479089975357056f,  0.3844022750854492f,   0.43911752104759216f, 0.33184072375297546f,
     -0.6135703325271606f,  -1.6180412769317627f,  0.24334602057933807f, -0.10545044392347336f,
     -0.3183852434158325f,  -0.2861849069595337f,  1.272046685218811f,   0.786591649055481f,
     -0.42505013942718506f, 0.43371114134788513f,  -0.6499826908111572f, 0.12077891081571579f,
     -0.07299049198627472f, -0.27352651953697205f, -0.9147015810012817f, -0.4904426634311676f,
     0.3386278450489044f,   -0.4134858250617981f,  0.1622546762228012f,  -0.12685662508010864f},
    {0.9600344896316528f,   -0.7158055901527405f,  0.20559383928775787f, -0.46703651547431946f,
     0.28156810998916626f,  -0.07455465942621231f, 0.29641881585121155f, 0.13858801126480103f,
     0.005203861277550459f, -0.6685792803764343f,  0.4779786169528961f,  -0.17074283957481384f,
     -0.11099215596914291f, -0.49118751287460327f, 0.02230534888803959f, 0.01260915957391262f,
     -0.25783398747444153f, 0.30558332800865173f,  0.10741365700960159f, -0.7230089902877808f,
     0.23993736505508423f,  -0.21758973598480225f, 0.8368266224861145f,  0.7144379615783691f,
     0.33535823225975037f,  0.04967522248625755f,  0.6265326142311096f,  -0.09967833757400513f,
     0.31245744228363037f,  -0.3054388761520386f,  0.3902028203010559f,  0.4457407593727112f},
    {0.3928926885128021f,  0.9854804873466492f,  0.5955764651298523f,    -0.33145371079444885f,
     0.691851019859314f,   -0.3730292320251465f, -0.011101528070867062f, 0.020891409367322922f,
     0.9087414145469666f,  0.60288405418396f,    0.42076724767684937f,   0.4296705424785614f,
     0.547250509262085f,   -0.3434678018093109f, 0.3157065510749817f,    0.40226295590400696f,
     0.7107248306274414f,  0.03006369061768055f, 0.21781456470489502f,   0.722714364528656f,
     -0.3857196569442749f, 0.7596493363380432f,  -0.3982739746570587f,   -0.9926724433898926f,
     0.0801621600985527f,  0.15987291932106018f, 0.44456690549850464f,   -0.3861545920372009f,
     0.531068742275238f,   1.111461877822876f,   0.37610211968421936f,   -0.5961328148841858f},
    {0.7345664501190186f,   0.6710326671600342f,  0.4667714238166809f,  0.35130733251571655f,
     -0.22988787293434143f, 0.1794181764125824f,  0.5925912261009216f,  0.6472662091255188f,
     0.5653114318847656f,   0.40293431282043457f, 0.5669391751289368f,  0.3670579493045807f,
     1.42850923538208f,     0.0919131264090538f,  0.3695724308490753f,  -1.4275861978530884f,
     -0.4746043086051941f,  0.910234272480011f,   0.09274141490459442f, -2.1912410259246826f,
     -0.6010938286781311f,  0.3530977666378021f,  0.49094000458717346f, 0.3967971205711365f,
     0.16590332984924316f,  0.549248456954956f,   -0.7414597868919373f, -0.5343970656394958f,
     0.5449272394180298f,   0.6812300086021423f,  0.43290889263153076f, -0.03570655360817909f},
    {0.04309533163905144f, -1.1890519857406616f,   0.8553935885429382f,   0.7010722160339355f,
     0.3775300979614258f,  0.097100168466568f,     -0.8830920457839966f,  0.4879454970359802f,
     0.6180999875068665f,  -0.4327729046344757f,   -0.15972743928432465f, 0.005976247135549784f,
     -0.8497143387794495f, 0.44956475496292114f,   0.31190919876098633f,  0.09472769498825073f,
     0.8307180404663086f,  -0.011897196993231773f, -0.05202460289001465f, 0.7177852988243103f,
     0.1290983408689499f,  0.32973021268844604f,   -1.834031581878662f,   0.5720874071121216f,
     0.3668781816959381f,  -1.0988190174102783f,   -0.3287590444087982f,  -0.8635751008987427f,
     0.09031812101602554f, 0.6301723718643188f,    0.35284432768821716f,  0.11742908507585526f},
    {0.5656066536903381f,   0.01563611812889576f,  0.18689918518066406f,  -0.5182704329490662f,
     -0.17991405725479126f, 0.5014955401420593f,   -0.32746753096580505f, -0.6517467498779297f,
     -1.2316856384277344f,  0.5047578811645508f,   -0.5258795619010925f,  -1.0449987649917603f,
     -0.964045524597168f,   -0.08296013623476028f, 0.7628206014633179f,   0.0562647245824337f,
     0.21945707499980927f,  0.616309642791748f,    0.2332012802362442f,   -0.5606163740158081f,
     0.6752691864967346f,   0.06911570578813553f,  1.0699599981307983f,   -0.22160722315311432f,
     0.39148369431495667f,  0.146771639585495f,    0.018193142488598824f, 1.3984488248825073f,
     -0.07178591936826706f, -0.6359987258911133f,  0.6073529124259949f,   -0.451842725276947f},
    {-1.2374475002288818f,  0.29928135871887207f,  -0.3894089162349701f,  -0.815159022808075f,
     0.4690251350402832f,   1.6569589376449585f,   -0.36177659034729004f, -0.7862017750740051f,
     0.055756475776433945f, 0.21590065956115723f,  -0.836879551410675f,   0.7766807079315186f,
     0.8539344072341919f,   0.523371696472168f,    -0.6646013855934143f,  -1.797703742980957f,
     -0.6482961773872375f,  -0.6708927750587463f,  -0.225606307387352f,   -0.5519157648086548f,
     -1.6457113027572632f,  -0.48319533467292786f, -1.2353860139846802f,  -2.007432222366333f,
     -0.2881281077861786f,  -1.3781054019927979f,  -1.281869888305664f,   1.2571876049041748f,
     0.7704718112945557f,   0.6295952796936035f,   0.18185459077358246f,  -1.7991492748260498f},
    {-0.21748261153697968f, 0.8325663805007935f,    -0.31943222880363464f,  0.5078144669532776f,
     0.3190155029296875f,   0.39990904927253723f,   0.6970824003219604f,    0.42564550042152405f,
     -0.4114971160888672f,  -0.050305068492889404f, 0.3637739419937134f,    0.2595549523830414f,
     0.7492969036102295f,   0.3143905997276306f,    -0.254524827003479f,    0.45397353172302246f,
     -0.1249355599284172f,  0.8651474714279175f,    -0.28005796670913696f,  0.19396492838859558f,
     0.16211800277233124f,  -0.26756128668785095f,  -1.3543301820755005f,   0.8638924360275269f,
     -0.4647526741027832f,  0.11342388391494751f,   0.2887241244316101f,    0.13288471102714539f,
     -0.5534783601760864f,  0.6741610169410706f,    0.0062849330715835094f, 0.29245689511299133f},
    {-1.8891535997390747f,  -0.40056630969047546f,  0.30406251549720764f,  -0.22992375493049622f,
     -0.6969006657600403f,  -0.2581298053264618f,   0.07524221390485764f,  -0.5637534260749817f,
     0.12666550278663635f,  -0.3771681487560272f,   0.20704592764377594f,  -0.02763812616467476f,
     -0.46616804599761963f, 0.6280225515365601f,    0.2715044915676117f,   -0.41519826650619507f,
     -0.4565325677394867f,  -0.044598862528800964f, 0.5294561982154846f,   0.0615188367664814f,
     -0.40728622674942017f, 0.33716070652008057f,   -1.003938913345337f,   -0.3059787154197693f,
     -0.3459759056568146f,  -0.7131397724151611f,   -1.6429747343063354f,  -0.2196401059627533f,
     0.3705725371837616f,   -0.27736344933509827f,  -0.41249826550483704f, -0.724287748336792f},
    {-0.1934974044561386f,  0.6168663501739502f,   0.0847070962190628f,    -0.11088006943464279f,
     -0.03361935168504715f, -0.928392767906189f,   0.43103262782096863f,   -0.09241332858800888f,
     0.7025638222694397f,   0.4649405777454376f,   0.4821794927120209f,    -0.2763478755950928f,
     0.3194381594657898f,   -0.3338552713394165f,  0.314987450838089f,     -0.2764381468296051f,
     -0.03551527485251427f, -0.46313369274139404f, -0.054815277457237244f, 0.6573485136032104f,
     -0.2311285436153412f,  0.6485524773597717f,   -0.16164611279964447f,  -0.2269693911075592f,
     0.6482517123222351f,   -0.1246141865849495f,  -0.14999991655349731f,  -0.22424311935901642f,
     -0.4685516953468323f,  0.0528973750770092f,   0.24763886630535126f,   -0.15734979510307312f},
    {0.09893612563610077f,  -0.27431243658065796f,   0.12311088293790817f, 0.25497618317604065f,
     -1.3556116819381714f,  -0.25897303223609924f,   0.11520233750343323f, 0.4763560891151428f,
     -0.12526310980319977f, 0.01580389216542244f,    0.04060370847582817f, -0.08689749985933304f,
     0.5233521461486816f,   -0.5446425080299377f,    0.465730220079422f,   0.4440420866012573f,
     -0.3822192847728729f,  -0.13771922886371613f,   -0.5733283162117004f, 0.2945474088191986f,
     0.30003106594085693f,  -0.0012575061991810799f, -0.3565797507762909f, 0.5397030711174011f,
     0.13152115046977997f,  0.7558521032333374f,     0.3549763560295105f,  -0.10552500188350677f,
     -0.4436130225658417f,  0.3977588415145874f,     0.23376035690307617f, 0.4131081700325012f},
    {-0.7629724740982056f,   -0.17041847109794617f, 0.1042308360338211f,   -0.7570222616195679f,
     0.6076828241348267f,    1.0190496444702148f,   0.24653460085391998f,  -0.35962358117103577f,
     -0.009668588638305664f, 0.09446919709444046f,  0.07963219285011292f,  0.48584121465682983f,
     1.1194227933883667f,    0.017636992037296295f, -0.09376563876867294f, -0.5243564248085022f,
     -0.994331419467926f,    0.7981156706809998f,   0.31952327489852905f,  -0.2905539274215698f,
     0.10499772429466248f,   0.6397573947906494f,   -0.11008623242378235f, -0.2879214584827423f,
     0.11760641634464264f,   -0.253721684217453f,   0.09056264907121658f,  0.2742381989955902f,
     -0.5245647430419922f,   -0.5984064936637878f,  -0.628692626953125f,   -0.5481237173080444f},
    {0.6009126305580139f,   -0.2701317369937897f, 0.6409162878990173f,   0.40841206908226013f,
     0.4251323640346527f,   -0.1246032789349556f, 0.013576936908066273f, -0.3870731294155121f,
     0.21959646046161652f,  0.33695125579833984f, 0.8635654449462891f,   0.1582202911376953f,
     -0.4864610433578491f,  0.7241278290748596f,  -0.5669618248939514f,  -0.5035475492477417f,
     0.11557333171367645f,  -0.1484103798866272f, 0.5045038461685181f,   -0.0038908154238015413f,
     -0.24036893248558044f, 0.12562234699726105f, 0.13621802628040314f,  -0.6734707951545715f,
     -0.03839432820677757f, -0.3298393785953522f, 0.1822556108236313f,   -0.4173664152622223f,
     0.2624397277832031f,   0.2061748206615448f,  0.4663446843624115f,   0.03256166726350784f},
    {0.20037022233009338f,  1.443121075630188f,   0.5153766870498657f,   0.5729374885559082f,
     -1.031027913093567f,   -1.2246719598770142f, -0.10472039133310318f, 0.5331321358680725f,
     -1.0766377449035645f,  1.908276915550232f,   0.43517616391181946f,  1.0945501327514648f,
     -0.4901217222213745f,  0.5923099517822266f,  0.3544943928718567f,   -0.95206618309021f,
     0.894225001335144f,    0.5142106413841248f,  0.010314804501831532f, 1.8415592908859253f,
     -0.19128914177417755f, -1.3797661066055298f, 0.03500328212976456f,  -1.058715581893921f,
     -0.843808114528656f,   0.8326032757759094f,  0.5292348861694336f,   -0.6986156105995178f,
     0.5066338777542114f,   0.8940172791481018f,  0.582008421421051f,    -0.025662081316113472f},
    {-0.38082391023635864f, -0.03402835503220558f, 0.46040335297584534f,  -0.0731864646077156f,
     -0.7595868706703186f,  0.09810787439346313f,  0.08558858186006546f,  0.020074648782610893f,
     0.16346152126789093f,  0.19217704236507416f,  -0.12505896389484406f, -0.3862474262714386f,
     -0.05238070338964462f, -0.07842548191547394f, 0.3697296679019928f,   -0.18062825500965118f,
     0.174879789352417f,    0.6885159015655518f,   0.1849999576807022f,   -1.2706084251403809f,
     0.1693599969148636f,   0.0562075711786747f,   -0.40760180354118347f, -0.13043583929538727f,
     -0.4094769358634949f,  0.0955742672085762f,   -0.8971403241157532f,  -0.009648187085986137f,
     0.20189161598682404f,  -0.2421937882900238f,  0.06777061522006989f,  -0.03366943821310997f},
    {-0.19053538143634796f, -0.07494483888149261f, 0.3427123725414276f,    0.3684767782688141f,
     -0.1884644478559494f,  -0.5057181119918823f,  -0.33418723940849304f,  0.1802009791135788f,
     0.03075016662478447f,  -1.1157342195510864f,  -0.23198983073234558f,  -0.34041962027549744f,
     -0.140127032995224f,   0.6304510235786438f,   -0.5441222190856934f,   0.07280342280864716f,
     0.25582537055015564f,  -0.335134893655777f,   -0.2536300718784332f,   0.2845020890235901f,
     0.11604049801826477f,  -0.2610835134983063f,  -0.044282056391239166f, 0.15008509159088135f,
     0.05924123153090477f,  0.6199128031730652f,   -1.2800778150558472f,   -1.4812854528427124f,
     0.10258413106203079f,  -0.3717203438282013f,  -0.6695184707641602f,   0.054799821227788925f},
    {-0.45257848501205444f, 0.6357318758964539f,   0.8109780550003052f,   0.6571505069732666f,
     -0.10715921968221664f, 0.2010709047317505f,   0.6610311269760132f,   0.1355951875448227f,
     0.6007825136184692f,   0.06943482160568237f,  0.5400497913360596f,   -0.16817469894886017f,
     0.44154444336891174f,  -0.6800640821456909f,  0.5985066294670105f,   0.217059925198555f,
     -0.4613340497016907f,  -0.20314045250415802f, 0.8231656551361084f,   1.1366692781448364f,
     -0.4772220551967621f,  -0.309242308139801f,   -0.975080668926239f,   0.3199540376663208f,
     0.5614957213401794f,   -0.23265358805656433f, -1.2229278087615967f,  -0.018513638526201248f,
     0.36787718534469604f,  -0.17801837623119354f, -0.31303396821022034f, -0.1359643042087555f},
    {0.1675885170698166f,   -0.3940422534942627f,  0.09038105607032776f,  -1.1513012647628784f,
     0.6545971035957336f,   1.7625809907913208f,   -0.7761077880859375f,  -0.6898599863052368f,
     0.8492911458015442f,   0.5245864391326904f,   0.07255392521619797f,  0.21789802610874176f,
     -0.32353803515434265f, -0.4531409740447998f,  -0.5662670135498047f,  -0.6762231588363647f,
     -0.18877540528774261f, 1.4506149291992188f,   -0.4744509756565094f,  -0.8353849649429321f,
     0.3537069857120514f,   -0.5962424874305725f,  0.5765788555145264f,   -0.5813978314399719f,
     0.3943139314651489f,   -0.9942618012428284f,  -0.10125710815191269f, -0.3976127505302429f,
     -0.6641091108322144f,  -0.30974021553993225f, 0.2514607608318329f,   0.9939178824424744f},
    {-0.2483724057674408f,  0.3043532371520996f,    0.21633651852607727f,  0.5630810856819153f,
     0.34986230731010437f,  -0.016681509092450142f, -0.26779818534851074f, 0.7293919920921326f,
     0.3940974771976471f,   -0.11635894328355789f,  0.17593389749526978f,  -0.8835322260856628f,
     0.4139584004878998f,   -0.3455605208873749f,   -0.6578932404518127f,  -0.8262864947319031f,
     -0.05605871602892876f, -0.6588817834854126f,   -0.22711879014968872f, 0.45442816615104675f,
     0.42940753698349f,     0.3439887464046478f,    -0.5787373781204224f,  0.19913740456104279f,
     1.028033971786499f,    0.375019371509552f,     -0.7443625926971436f,  -0.052762068808078766f,
     0.32818615436553955f,  0.42218995094299316f,   0.16067279875278473f,  0.46084335446357727f},
    {-0.1694166213274002f,   0.30231624841690063f,  -1.5916345119476318f,  0.3284038305282593f,
     0.9020654559135437f,    -0.7378552556037903f,  -1.963969349861145f,   0.1796898990869522f,
     0.22217287123203278f,   -0.11518233269453049f, 1.0783196687698364f,   1.2397637367248535f,
     -0.008138492703437805f, -0.1452564001083374f,  0.6387662291526794f,   0.48392391204833984f,
     -0.4603691101074219f,   -0.15560074150562286f, 0.3098001778125763f,   1.0372782945632935f,
     -1.4584202766418457f,   0.6143580675125122f,   -0.27210062742233276f, -0.7789438962936401f,
     -0.44182464480400085f,  0.893301784992218f,    1.1101763248443604f,   -2.1040661334991455f,
     -0.3582755923271179f,   0.7785784602165222f,   0.3354091942310333f,   -0.17708706855773926f},
    {0.06749242544174194f, -0.7434353828430176f,  0.19621846079826355f,  0.29858407378196716f,
     0.06650902330875397f, 0.03406863287091255f,  -0.16731563210487366f, -0.3785601258277893f,
     -0.611333966255188f,  -0.14491529762744904f, -0.4903460741043091f,  -0.2936321496963501f,
     0.2276393175125122f,  0.1055079773068428f,   0.3237491250038147f,   0.4470472037792206f,
     0.5322306156158447f,  -0.5221531391143799f,  -0.17398211359977722f, 0.6021333932876587f,
     0.4001847505569458f,  -0.12761175632476807f, -0.6051984429359436f,  -0.20444355905056f,
     0.136049285531044f,   0.24287329614162445f,  0.6343233585357666f,   -0.010871757753193378f,
     0.4943692982196808f,  0.7187601327896118f,   0.2950200140476227f,   0.10743356496095657f},
    {0.25854286551475525f,  1.0096924304962158f,   -1.564997673034668f,   0.09572239220142365f,
     -1.489539384841919f,   0.5045071840286255f,   0.6514459252357483f,   0.09424765408039093f,
     -0.7913661003112793f,  0.12974445521831512f,  0.2238895297050476f,   -0.1423015147447586f,
     0.031127648428082466f, -0.18326827883720398f, 0.25423485040664673f,  0.42024165391921997f,
     1.0608824491500854f,   0.4057723879814148f,   -0.15000277757644653f, 1.1276971101760864f,
     0.33357664942741394f,  -0.33814769983291626f, 0.8725951313972473f,   -0.39534711837768555f,
     0.38766053318977356f,  -1.4273093938827515f,  0.38432613015174866f,  0.5440119504928589f,
     -0.8737109303474426f,  0.14807473123073578f,  0.1331585943698883f,   0.15689998865127563f},
    {0.19756942987442017f,  0.47758886218070984f,  1.0407780408859253f,    0.5729228258132935f,
     -1.4065021276474f,     -0.14179055392742157f, 0.828585147857666f,     0.1982596218585968f,
     -1.0454360246658325f,  1.0516802072525024f,   -0.34341540932655334f,  0.12487749755382538f,
     0.11657623946666718f,  0.42117801308631897f,  0.028576010838150978f,  0.6937021613121033f,
     0.713165283203125f,    -0.03326394781470299f, -0.14294035732746124f,  0.1013229563832283f,
     0.34344160556793213f,  0.08024342358112335f,  0.5866571068763733f,    -0.5931874513626099f,
     0.011863247491419315f, -0.06486775726079941f, -0.05805527791380882f,  0.19298478960990906f,
     0.9417471885681152f,   -1.2664874792099f,     -0.016475647687911987f, -0.21129253506660461f},
    {0.24012643098831177f, -0.07570411264896393f, -0.9927538633346558f,  0.7515650987625122f,
     0.1895764172077179f,  -0.31055447459220886f, 0.474377304315567f,    0.4614833891391754f,
     -1.0757458209991455f, -0.08495792746543884f, -0.03076886013150215f, 0.5993590950965881f,
     -0.7544365525245667f, 0.965739369392395f,    -0.10864373296499252f, 1.119287371635437f,
     1.0624709129333496f,  -2.2111504077911377f,  -2.8122756481170654f,  0.33199644088745117f,
     0.5335662364959717f,  0.09886535257101059f,  0.22460781037807465f,  0.02489243447780609f,
     -1.181556224822998f,  0.52730792760849f,     0.6006814241409302f,   0.7079426646232605f,
     0.08039834350347519f, 0.3251792788505554f,   -0.3603116571903229f,  0.9014668464660645f},
    {-1.4540191888809204f,    0.42547720670700073f,  0.3485432267189026f,  1.3490127325057983f,
     0.885590672492981f,      0.041772015392780304f, 0.553906261920929f,   0.5960425734519958f,
     0.4582340717315674f,     0.4743598699569702f,   -0.8974314332008362f, 0.579751193523407f,
     0.6337106823921204f,     0.22897718846797943f,  0.09980101883411407f, 0.8534849882125854f,
     -0.2233477383852005f,    0.309634804725647f,    -0.4818040728569031f, -0.6433953046798706f,
     -0.0013370603555813432f, -0.1401200294494629f,  1.3049262762069702f,  -1.253773808479309f,
     -0.9848223924636841f,    -0.21426162123680115f, 0.1843031942844391f,  0.3160218298435211f,
     -0.6384748816490173f,    0.035578418523073196f, 0.5987254977226257f,  0.33176422119140625f},
    {0.47142115235328674f,  1.4497255086898804f,  0.8469721078872681f,   0.7023134231567383f,
     -0.12826719880104065f, 0.16472911834716797f, 0.45275476574897766f,  0.35118523240089417f,
     0.6642418503761292f,   0.7225214838981628f,  -0.33539333939552307f, 0.37494131922721863f,
     0.42112600803375244f,  0.5914891958236694f,  -0.1276814043521881f,  0.5912301540374756f,
     0.5742413401603699f,   0.72125643491745f,    -1.5801997184753418f,  -1.1370636224746704f,
     0.46624284982681274f,  0.6680744886398315f,  1.0566898584365845f,   1.3318288326263428f,
     0.17253758013248444f,  -0.5656644701957703f, 0.039150744676589966f, 0.36423632502555847f,
     0.412336528301239f,    0.60499107837677f,    0.35364624857902527f,  0.14542905986309052f},
    {-0.5649357438087463f,   0.5931373238563538f,   -1.645830512046814f,   -1.5534700155258179f,
     -0.006822730414569378f, 0.398571640253067f,    -0.37049955129623413f, 0.37192481756210327f,
     0.9795794486999512f,    0.2459219992160797f,   -0.7504444122314453f,  0.0380818247795105f,
     0.023624392226338387f,  -0.5230916738510132f,  -0.18601498007774353f, -0.1990797370672226f,
     -0.43489548563957214f,  -1.778692364692688f,   0.15933750569820404f,  -1.0496737957000732f,
     0.6180015206336975f,    0.4463808536529541f,   -0.3122057616710663f,  1.1136668920516968f,
     1.722157597541809f,     -0.07868938148021698f, 0.8037715554237366f,   -0.9834108948707581f,
     -0.09247731417417526f,  -1.9354983568191528f,  -0.05329274758696556f, 0.2092801034450531f},
    {0.22223880887031555f,  0.8643129467964172f,   -0.4244869351387024f,   0.7939347624778748f,
     0.10659418255090714f,  -1.0122942924499512f,  -0.8666797280311584f,   0.9095790982246399f,
     -0.7677963376045227f,  -0.0367298424243927f,  -1.180206298828125f,    0.3194672167301178f,
     0.5843929052352905f,   -1.019091248512268f,   -0.42233341932296753f,  0.4448697865009308f,
     -0.16580204665660858f, -0.7843470573425293f,  -0.30112072825431824f,  0.6637821793556213f,
     -1.3244595527648926f,  0.026757311075925827f, -0.045377496629953384f, -0.5411086082458496f,
     -0.7581148147583008f,  1.1995850801467896f,   -1.401694416999817f,    -0.5254637002944946f,
     -0.6414320468902588f,  0.5298652648925781f,   0.15368080139160156f,   -1.2316654920578003f},
    {0.8168574571609497f,    0.3762601315975189f,  -0.4560167193412781f,  0.7844955921173096f,
     0.34942591190338135f,   0.1976512223482132f,  -0.09156238287687302f, 0.38628169894218445f,
     1.9311081171035767f,    0.19496716558933258f, 0.5973146557807922f,   -0.8182048797607422f,
     0.6628819108009338f,    0.7745401859283447f,  -0.14312589168548584f, -0.2188456803560257f,
     -0.11644160747528076f,  1.0007798671722412f,  -0.38946473598480225f, -2.1811959743499756f,
     -0.012920699082314968f, -0.5691875219345093f, -0.20610520243644714f, -0.6252641677856445f,
     -0.18231458961963654f,  0.2163206785917282f,  -0.13952720165252686f, -1.131622076034546f,
     0.4577646553516388f,    1.8254748582839966f,  -0.29442059993743896f, -0.28363677859306335f},
    {-0.2957072854042053f,  0.1677023321390152f,   0.6400313973426819f,   0.017977746203541756f,
     -0.6578489542007446f,  -1.145357370376587f,   -0.2566797137260437f,  0.3932311534881592f,
     -0.655616819858551f,   -0.6003127098083496f,  0.29154661297798157f,  0.18635281920433044f,
     -0.09296133369207382f, 0.23585058748722076f,  0.138423353433609f,    0.03532073274254799f,
     1.565697431564331f,    -0.03139369934797287f, -0.26395684480667114f, 0.6318605542182922f,
     -0.5708139538764954f,  1.0014843940734863f,   0.029616663232445717f, -0.22979620099067688f,
     -0.1427825689315796f,  0.22894972562789917f,  0.22374296188354492f,  -0.294829398393631f,
     -0.3542662262916565f,  0.8533039689064026f,   0.2292223423719406f,   -0.5339868664741516f},
    {0.5491518974304199f,  0.28022658824920654f,   0.06977594643831253f,  0.11530568450689316f,
     0.6343541145324707f,  0.6141176819801331f,    1.296583890914917f,    -0.6505881547927856f,
     -1.1299374103546143f, -0.507986843585968f,    -2.3439505100250244f,  -0.392050176858902f,
     0.7933229207992554f,  -0.13029800355434418f,  -0.1622958481311798f,  -0.810044527053833f,
     0.40780216455459595f, -0.053558576852083206f, 0.8241584300994873f,   -0.30642494559288025f,
     -0.9310972690582275f, 0.4430030882358551f,    0.7299314737319946f,   0.5614150166511536f,
     0.3415478467941284f,  -0.33721068501472473f,  -0.8495228886604309f,  -0.004618462175130844f,
     0.15357255935668945f, -0.10035879909992218f,  -0.26361891627311707f, -0.18824172019958496f},
    {1.0153679847717285f,   0.0961679220199585f,   -0.07525736838579178f, 0.648924708366394f,
     -0.4263838827610016f,  0.4936453700065613f,   -0.578264594078064f,   2.7167961597442627f,
     -0.4915830194950104f,  0.7406914234161377f,   0.9985123872756958f,   -0.27334827184677124f,
     -1.8939870595932007f,  0.3735288679599762f,   -0.3940531015396118f,  -0.6363133788108826f,
     0.9772254824638367f,   2.0898263454437256f,   -1.0370655059814453f,  -0.08899275213479996f,
     -0.09263113886117935f, -0.46113964915275574f, 1.6172723770141602f,   -1.732590675354004f,
     -0.3493991196155548f,  0.16117194294929504f,  0.20028997957706451f,  0.41267678141593933f,
     -0.9728519320487976f,  0.0746292918920517f,   -0.6501852869987488f,  0.4044508934020996f},
    {0.04384994134306908f,   1.103384256362915f,   -1.1400660276412964f,  1.2380235195159912f,
     -2.2065441608428955f,   0.6332144737243652f,  -1.0022118091583252f,  0.10551003366708755f,
     0.008978587575256824f,  0.5607361793518066f,  -0.30782002210617065f, 1.2306493520736694f,
     -1.4232027530670166f,   1.122410774230957f,   0.3025289475917816f,   -0.21486234664916992f,
     -0.20136086642742157f,  0.31783121824264526f, 1.07178795337677f,     0.5138936042785645f,
     -0.00302300788462162f,  0.5559970736503601f,  -0.46992871165275574f, 0.10713791847229004f,
     -0.27383318543434143f,  -0.3606446385383606f, 0.002658909885212779f, -0.19132158160209656f,
     -0.050778500735759735f, 0.4673864543437958f,  0.286343514919281f,    -1.1355880498886108f},
    {0.2768419086933136f,  -1.38810133934021f,    0.5565161108970642f,   0.17661212384700775f,
     -0.7492693066596985f, 0.17689205706119537f,  -0.5199694037437439f,  -0.04441658779978752f,
     -0.5814835429191589f, 0.10241805762052536f,  1.0922027826309204f,   0.009968943893909454f,
     0.44553142786026f,    0.5611851215362549f,   -0.06037718430161476f, -0.7097696661949158f,
     0.4138598144054413f,  -1.2483726739883423f,  0.15443572402000427f,  1.097404956817627f,
     0.5010237693786621f,  0.34808024764060974f,  0.15727989375591278f,  0.8480024337768555f,
     1.0845005512237549f,  -0.18821871280670166f, -1.1571505069732666f,  -0.3784034848213196f,
     0.5663952231407166f,  0.6328900456428528f,   -0.7957109212875366f,  0.6320427060127258f},
    {0.2597055435180664f,  -0.18901976943016052f, 1.4828132390975952f,  -1.0083812475204468f,
     1.5695364475250244f,  -0.23320308327674866f, -0.3304012417793274f, -0.8511654138565063f,
     0.5026586055755615f,  -0.5721654295921326f,  0.5549948215484619f,  0.7859222888946533f,
     0.9181796312332153f,  -1.1988630294799805f,  1.772520661354065f,   0.36144694685935974f,
     -0.609154224395752f,  -1.2712725400924683f,  1.3071318864822388f,  -0.7992287874221802f,
     0.3853447735309601f,  0.5834853649139404f,   1.240094780921936f,   -0.33168989419937134f,
     -1.1931606531143188f, -0.5455421209335327f,  1.1588929891586304f,  0.1990519016981125f,
     1.2089978456497192f,  -1.0075989961624146f,  -1.0024970769882202f, 0.09146430343389511f},
    {0.0069808997213840485f, 0.45526909828186035f,  -0.06113019213080406f, 0.9984421133995056f,
     -0.2898540198802948f,   0.272148072719574f,    -0.431304931640625f,   0.5656220316886902f,
     -0.6308461427688599f,   0.006953071802854538f, 0.43278607726097107f,  0.8537707924842834f,
     0.23055748641490936f,   -0.2735861837863922f,  -1.5778223276138306f,  0.6030054688453674f,
     0.892756998538971f,     1.150396704673767f,    -0.1029062494635582f,  1.0157551765441895f,
     0.7170313000679016f,    0.24310936033725739f,  -1.478082299232483f,   -0.759633481502533f,
     -1.921015977859497f,    0.8262482285499573f,   -0.9698236584663391f,  -0.3328709602355957f,
     0.1756983995437622f,    1.188122272491455f,    0.7021842002868652f,   -1.4149216413497925f},
    {-0.13500046730041504f, 0.7324368357658386f,  0.9258449077606201f,   -1.6738008260726929f,
     -1.6644423007965088f,  0.2947688400745392f,  -0.6066887974739075f,  -1.3795785903930664f,
     -0.09455393999814987f, 1.8030494451522827f,  -0.8755270838737488f,  0.13046665489673615f,
     -0.25804731249809265f, 0.16501058638095856f, 0.2345961183309555f,   -0.162202388048172f,
     0.5745550394058228f,   0.47633713483810425f, 0.26591265201568604f,  -0.9847813844680786f,
     -0.33869051933288574f, 0.8993832468986511f,  -0.32131311297416687f, -0.9318469166755676f,
     -0.4464520812034607f,  0.1079784482717514f,  -0.13940587639808655f, 0.6185674667358398f,
     -0.8487717509269714f,  -0.7918294668197632f, 1.280880093574524f,    0.22602760791778564f},
    {0.45193415880203247f, -0.4551289677619934f, -0.276359885931015f,  1.0924036502838135f,
     0.04997437819838524f, 0.49768975377082825f, -1.2935107946395874f, 0.5408768653869629f,
     0.14059944450855255f, 0.7005968689918518f,  -0.2730500400066376f, 0.6785076260566711f,
     0.4991016387939453f,  0.33119282126426697f, 0.6390253901481628f,  -0.18476787209510803f,
     0.26327431201934814f, 0.9040327072143555f,  -0.7465848922729492f, 0.9387968182563782f,
     0.05432116240262985f, -2.091048002243042f,  0.47407782077789307f, 0.9933316111564636f,
     -0.6696473360061646f, 1.2405344247817993f,  -0.6436288952827454f, 0.28883305191993713f,
     -1.4691427946090698f, 1.029308795928955f,   -1.5049465894699097f, 0.02258312702178955f},
    {1.1592241525650024f,   -0.9861356019973755f,  1.1662609577178955f,   0.25728893280029297f,
     -0.20216311514377594f, -0.24011856317520142f, -0.736017644405365f,   -0.10134391486644745f,
     -0.10956348478794098f, 1.2006783485412598f,   0.09553028643131256f,  1.4306823015213013f,
     -0.3349091708660126f,  1.0037647485733032f,   -1.6569392681121826f,  -0.41309064626693726f,
     -0.9062135815620422f,  0.36322981119155884f,  0.6460080742835999f,   1.2955167293548584f,
     0.3967691957950592f,   -0.4146147072315216f,  -0.8579765558242798f,  1.2699406147003174f,
     -1.2458522319793701f,  0.8777841925621033f,   0.2828487753868103f,   -0.7244252562522888f,
     0.28903868794441223f,  -0.18014433979988098f, -0.38062408566474915f, 0.24815425276756287f},
    {-1.5740689039230347f, -0.15955552458763123f, 0.6835075616836548f,    -0.23882274329662323f,
     0.14290334284305573f, -0.12412428855895996f, -0.3540184199810028f,   0.0886426642537117f,
     -0.3953346014022827f, -0.37430712580680847f, 0.6479954719543457f,    -0.18077941238880157f,
     -0.5614877939224243f, 0.43476957082748413f,  0.8412069082260132f,    0.4922351837158203f,
     1.0690022706985474f,  0.10899320989847183f,  -0.049578290432691574f, 0.5022705793380737f,
     0.22913382947444916f, 0.04645634442567825f,  0.3562815189361572f,    -1.1775480508804321f,
     0.5923600792884827f,  0.08950840681791306f,  -0.19741319119930267f,  0.28675976395606995f,
     1.044384241104126f,   0.7403861284255981f,   -0.6721768975257874f,   0.6651329398155212f},
    {-0.04447945952415466f, 0.9751271605491638f,   0.27774038910865784f,  -2.0140585899353027f,
     0.6651458144187927f,   0.1170097067952156f,   0.8465328812599182f,   -0.0505233071744442f,
     0.8625506162643433f,   -0.6499211192131042f,  -0.49722176790237427f, 0.4916093945503235f,
     0.17646804451942444f,  -0.9831438660621643f,  -0.6340200901031494f,  1.460898518562317f,
     0.6517442464828491f,   -0.19005994498729706f, -1.8151886463165283f,  -0.59272700548172f,
     0.966953456401825f,    -1.3639780282974243f,  0.6527851223945618f,   1.0025105476379395f,
     0.9653235077857971f,   -1.2383441925048828f,  0.3737005591392517f,   1.6106789112091064f,
     -0.9798349142074585f,  0.41928115487098694f,  1.063512921333313f,    -1.5271579027175903f},
    {1.2297682762145996f,   -0.6865429878234863f,   -0.9473078846931458f,  1.2312809228897095f,
     -1.6334978342056274f,  0.5640392303466797f,    0.28029346466064453f,  0.7148027420043945f,
     -0.46746742725372314f, -0.7096882462501526f,   0.8929871320724487f,   -0.728632926940918f,
     -0.408591091632843f,   -0.17755478620529175f,  0.003206867491826415f, -0.3402215242385864f,
     -0.19806912541389465f, 0.39468446373939514f,   -0.2305450141429901f,  -0.35793155431747437f,
     -1.0581843852996826f,  -0.4922347068786621f,   -0.6660770177841187f,  -1.7388347387313843f,
     -0.7421862483024597f,  -0.025019876658916473f, -0.07908513396978378f, -1.92124605178833f,
     -0.2574031352996826f,  0.30861926078796387f,   -0.3127307891845703f,  -1.0883444547653198f},
    {-1.3216760158538818f, 0.8565442562103271f,  -1.3558945655822754f, 0.6973003149032593f,
     0.2336093932390213f,  0.536405622959137f,   -1.0300129652023315f, 0.7597033381462097f,
     0.7020925283432007f,  0.5993314981460571f,  0.870489776134491f,   -0.5028845071792603f,
     0.1795106679201126f,  1.2896525859832764f,  -1.520542025566101f,  1.2077038288116455f,
     0.8932847380638123f,  0.7402253746986389f,  -0.0569276325404644f, 0.6652155518531799f,
     0.8690256476402283f,  -1.5158876180648804f, -1.6222845315933228f, 0.8960713148117065f,
     -0.8575489521026611f, 2.3154022693634033f,  1.772707462310791f,   0.6879595518112183f,
     -0.5087884664535522f, 0.6230625510215759f,  2.4086337089538574f,  -0.11654258519411087f},
    {0.1667274534702301f,   -0.23304882645606995f,  0.7165594696998596f, 0.20110516250133514f,
     0.1993269920349121f,   -0.5818878412246704f,   0.1343633383512497f, -0.018346430733799934f,
     -0.12841078639030457f, 0.4842037856578827f,    0.6662519574165344f, 0.6880139112472534f,
     -0.49962857365608215f, -0.5635977387428284f,   0.1007053554058075f, -0.45760056376457214f,
     1.0519484281539917f,   -0.30772095918655396f,  0.5534633994102478f, 0.3793160915374756f,
     -1.162771463394165f,   -0.062397025525569916f, 0.5963579416275024f, -0.1157795637845993f,
     0.10773604363203049f,  0.1502811461687088f,    0.4876418709754944f, -0.5391893982887268f,
     0.8706903457641602f,   1.0128360986709595f,    0.9815986156463623f, 0.4582254886627197f},
    {0.1743355393409729f,   -0.6847952008247375f,  -0.49538835883140564f, -1.0333670377731323f,
     -0.44239309430122375f, -0.3928205370903015f,  0.7026957869529724f,   -0.6166869401931763f,
     -1.2646790742874146f,  0.6838297247886658f,   1.5163661241531372f,   -0.41286587715148926f,
     -0.4726852774620056f,  -0.1462544947862625f,  -0.2589336037635803f,  0.46896839141845703f,
     -0.9301968216896057f,  0.4256361424922943f,   -2.094376564025879f,   0.20293544232845306f,
     -0.12058277428150177f, -0.4136353135108948f,  -0.34641245007514954f, -0.45237213373184204f,
     -0.4470125734806061f,  0.5972575545310974f,   0.5133678317070007f,   0.06257963180541992f,
     0.4026300609111786f,   -0.27612611651420593f, 0.14679574966430664f,  1.0193060636520386f},
    {0.7859458923339844f,   0.4735882580280304f,  0.284158319234848f,   1.255726933479309f,
     -1.4052281379699707f,  0.5946629047393799f,  0.1889900416135788f,  0.2792917490005493f,
     0.3523414433002472f,   0.904143214225769f,   0.30945366621017456f, -1.1915134191513062f,
     0.3507704436779022f,   0.9548771381378174f,  0.7932212948799133f,  -0.9085941314697266f,
     -1.2264810800552368f,  0.667751669883728f,   0.3450471758842468f,  0.30044788122177124f,
     -0.9135329723358154f,  0.5086584091186523f,  -1.2034858465194702f, -0.32756486535072327f,
     0.4300895929336548f,   -1.0861051082611084f, -0.0328783243894577f, 1.0478745698928833f,
     -0.21755824983119965f, 0.5251309871673584f,  1.3504482507705688f,  -0.2992130219936371f},
    {0.6065506339073181f,   0.4080730378627777f,   0.7948184609413147f,   -0.3754805028438568f,
     1.4992624521255493f,   -0.6727448105812073f,  0.05726674944162369f,  -0.37879568338394165f,
     0.9628348350524902f,   -0.3421053886413574f,  -0.3955516219139099f,  -0.07208506017923355f,
     0.23920422792434692f,  -1.2955162525177002f,  1.0242592096328735f,   1.2724931240081787f,
     0.4618268311023712f,   -0.47460830211639404f, 1.6565945148468018f,   0.3624228835105896f,
     1.2137435674667358f,   2.105907917022705f,    -0.4399118721485138f,  0.734086275100708f,
     0.8559442162513733f,   0.8391335606575012f,   -0.5505989789962769f,  0.29243919253349304f,
     -0.33117809891700745f, -1.1871371269226074f,  -0.19421592354774475f, 0.912746012210846f},
    {-0.16361738741397858f, 1.2707000970840454f,    0.4058528542518616f,   -0.7199298739433289f,
     -0.12577153742313385f, -1.3305132389068604f,   0.6325891017913818f,   -0.10891435295343399f,
     0.4551244080066681f,   1.9423677921295166f,    0.9214229583740234f,   1.4234215021133423f,
     0.5149794816970825f,   -0.019037187099456787f, -0.624853789806366f,   -0.47732892632484436f,
     -0.45308274030685425f, 0.04149801284074783f,   0.6984708309173584f,   2.2222487926483154f,
     -0.33622655272483826f, 0.8470247983932495f,    -0.8337021470069885f,  -1.0617636442184448f,
     -0.7250249981880188f,  1.5559818744659424f,    -0.14922590553760529f, 0.19187171757221222f,
     -0.16794370114803314f, 1.5661648511886597f,    -0.744205892086029f,   0.09577789157629013f},
    {0.7277326583862305f,    1.6759471893310547f,   0.41178154945373535f,  0.18346938490867615f,
     0.24518714845180511f,   -0.9530184864997864f,  0.19990907609462738f,  0.10751193761825562f,
     0.14373336732387543f,   1.0031332969665527f,   0.35546305775642395f,  1.1792398691177368f,
     0.8243522047996521f,    -0.41729575395584106f, -0.39646345376968384f, -1.4171022176742554f,
     -0.36175602674484253f,  0.024869272485375404f, -0.5887377858161926f,  0.1913018375635147f,
     -0.6683234572410583f,   1.081737995147705f,    1.12847900390625f,     -0.7576096057891846f,
     -0.07575041055679321f,  0.5931592583656311f,   -1.1446812152862549f,  0.004460114985704422f,
     -0.034086208790540695f, 1.2203742265701294f,   1.004758358001709f,    0.2116812765598297f},
    {0.5113713145256042f,   0.18130013346672058f,  -0.3568879961967468f,  -0.5993258953094482f,
     -0.3815264403820038f,  0.1799040287733078f,   0.7893354296684265f,   -0.34929358959198f,
     0.7667938470840454f,   1.1920349597930908f,   1.2473721504211426f,   -1.572435736656189f,
     -2.1488912105560303f,  1.3026292324066162f,   -0.7857529520988464f,  0.3981737196445465f,
     -1.4728522300720215f,  0.22952978312969208f,  0.6791360974311829f,   -0.04560799524188042f,
     -0.3781766891479492f,  0.3189450204372406f,   -0.19741369783878326f, 0.082347571849823f,
     0.028695831075310707f, 0.8374617099761963f,   -1.1110789775848389f,  -0.10624191910028458f,
     0.7272989153862f,      -0.36042267084121704f, -0.5172165036201477f,  0.6427780985832214f},
    {0.5416681170463562f,   1.032584547996521f,    -0.1706802099943161f,  -0.40100160241127014f,
     -1.1109060049057007f,  0.6947158575057983f,   -0.5028806924819946f,  0.5159460306167603f,
     -0.47051411867141724f, 0.2488284409046173f,   -0.04035031422972679f, -0.10476471483707428f,
     0.4975752830505371f,   -1.0040013790130615f,  1.0756969451904297f,   0.6277520656585693f,
     0.1321278214454651f,   0.03885872662067413f,  -0.40007781982421875f, 0.9283832311630249f,
     -0.5109163522720337f,  0.4795728325843811f,   -0.33090832829475403f, -0.4005506932735443f,
     0.5911160707473755f,   0.27206742763519287f,  -0.31724855303764343f, 0.3221158981323242f,
     0.20360012352466583f,  -0.33847448229789734f, -0.3777826428413391f,  -0.7728262543678284f},
    {1.317061185836792f,    2.329077959060669f,    -0.2615860104560852f, -0.26107755303382874f,
     -0.5365543365478516f,  -1.8143724203109741f,  0.6403006315231323f,  -0.08448166400194168f,
     -0.18300913274288177f, 0.006069525610655546f, 0.17733731865882874f, 0.11634590476751328f,
     0.004510161001235247f, -0.41887325048446655f, -1.4069197177886963f, 0.8932836055755615f,
     -0.10324295610189438f, -1.2973172664642334f,  0.15506570041179657f, 1.0450400114059448f,
     -0.4452633261680603f,  -0.5726174712181091f,  -0.5617600083351135f, -0.23954656720161438f,
     0.3775634169578552f,   1.8571549654006958f,   -0.7705445885658264f, -0.1564091295003891f,
     1.0265618562698364f,   1.2277690172195435f,   -1.7966631650924683f, -0.06631763279438019f},
    {-1.5719826221466064f,  -1.591389536857605f,   -1.2771227359771729f, -1.193489670753479f,
     -1.0804779529571533f,  -0.6159049272537231f,  -0.3864004611968994f, 0.5057275891304016f,
     -0.17212145030498505f, -0.34641215205192566f, -0.862651526927948f,  -0.29210060834884644f,
     -1.0702381134033203f,  -0.46688520908355713f, -0.357045441865921f,  -1.3177019357681274f,
     -1.6259065866470337f,  -1.17037832736969f,    -1.7810369729995728f, -1.6803460121154785f,
     0.9343989491462708f,   -0.35698527097702026f, -1.6235777139663696f, -1.4749964475631714f,
     -1.778026819229126f,   -1.574905276298523f,   -0.5158938765525818f, 0.6374502182006836f,
     -0.627048671245575f,   -1.2618283033370972f,  -1.2810299396514893f, 0.9862698912620544f},
    {-0.4009934365749359f,  0.11258844286203384f,  0.09963510930538177f, -0.1607237011194229f,
     0.9717526435852051f,   0.04270463064312935f,  0.32910972833633423f, -0.11658436805009842f,
     -0.04059118032455444f, 0.19336894154548645f,  -0.8261294364929199f, 0.30931004881858826f,
     -0.13567179441452026f, 0.1705414205789566f,   0.7091712355613708f,  0.5951254963874817f,
     -0.23168526589870453f, 0.9870269298553467f,   -0.6978378295898438f, -0.22341051697731018f,
     0.18600130081176758f,  2.0481884479522705f,   0.7514041066169739f,  0.4897517263889313f,
     2.0466201305389404f,   0.48777055740356445f,  1.036418080329895f,   -1.2429156303405762f,
     0.1462954729795456f,   0.022619955241680145f, 0.3425314128398895f,  -0.07308914512395859f},
    {-1.5703858137130737f,  -0.4661082625389099f, 0.25109314918518066f,   -0.0354817658662796f,
     0.7309215068817139f,   0.7904365062713623f,  0.002424664329737425f,  0.596781313419342f,
     -0.20766744017601013f, -0.6188899278640747f, 0.024715999141335487f,  -0.02515207789838314f,
     0.4814665615558624f,   0.408854603767395f,   0.3186572194099426f,    1.0221105813980103f,
     0.5391228795051575f,   -0.2271583378314972f, -0.41328710317611694f,  0.6583985686302185f,
     0.727158784866333f,    0.5881918668746948f,  -0.050278499722480774f, 0.40248289704322815f,
     -0.5121892094612122f,  1.5152993202209473f,  1.6579123735427856f,    -0.6914989352226257f,
     0.7525542974472046f,   0.5534269213676453f,  1.8261898756027222f,    -0.682333767414093f}
};

const float biases1[32] = {
    0.2635037899017334f,  0.40423235297203064f, 0.45720264315605164f,  0.31372207403182983f,
    0.273660808801651f,   0.23812797665596008f, 0.31516629457473755f,  0.3920612335205078f,
    0.28290075063705444f, 0.3132403790950775f,  0.5447721481323242f,   0.4475706219673157f,
    0.23755401372909546f, 0.10497219860553741f, 0.31189748644828796f,  0.2466823309659958f,
    0.2519248425960541f,  0.3290799856185913f,  0.2977575957775116f,   0.035083699971437454f,
    0.37000876665115356f, 0.4251498878002167f,  0.05768027901649475f,  0.500503659248352f,
    0.46542179584503174f, 0.4797822833061218f,  0.006594504229724407f, 0.05275365710258484f,
    0.31560638546943665f, 0.197365865111351f,   0.30378392338752747f,  0.3821782171726227f
};

const float weights2[32][27] = {
    {0.8586429953575134f,  1.3002232313156128f,  -0.23888227343559265f, -2.155836582183838f,
     0.6863412261009216f,  -0.4254700839519501f, 0.14563584327697754f,  -0.8485295176506042f,
     0.19898726046085358f, -0.6678167581558228f, -1.3030799627304077f,  0.3706698417663574f,
     0.4981808662414551f,  0.1431410014629364f,  0.32531577348709106f,  1.428912878036499f,
     0.4727841913700104f,  0.975547730922699f,   0.21497881412506104f,  0.20807087421417236f,
     -0.4385950565338135f, -0.8105139136314392f, 0.7764613628387451f,   0.166677787899971f,
     -0.8140527009963989f, 0.34195420145988464f, -0.5696721076965332f},
    {0.09031295031309128f, 0.06188270077109337f,  -0.4613327980041504f, -0.9379085302352905f,
     0.44528236985206604f, -0.02752560004591942f, -0.5528917908668518f, 0.7240423560142517f,
     0.4137996733188629f,  0.09397327154874802f,  -1.7640424966812134f, 0.649291455745697f,
     -1.1680309772491455f, 1.2594856023788452f,   0.5601567029953003f,  -0.9522656798362732f,
     -0.839027464389801f,  0.387251615524292f,    -0.1974000334739685f, -2.1011786460876465f,
     0.07891475409269333f, -0.5304741263389587f,  -0.7037712931632996f, 0.23962251842021942f,
     -0.3327990770339966f, 1.1716117858886719f,   0.7071843147277832f},
    {0.4154316782951355f,   0.30064693093299866f, -0.12079821527004242f, 0.1251005381345749f,
     0.42325642704963684f,  -1.2566076517105103f, 0.5970492362976074f,   -2.703275203704834f,
     -0.32176968455314636f, -1.0665767192840576f, -0.38600778579711914f, 0.07568573206663132f,
     -0.1421622633934021f,  -0.603818953037262f,  0.7942277789115906f,   -0.6219707131385803f,
     -0.2138841599225998f,  0.39310121536254883f, 0.43821778893470764f,  -1.25420343875885f,
     -0.17341022193431854f, -0.8334397077560425f, 0.5740269422531128f,   -1.1584495306015015f,
     0.00938824750483036f,  -0.3570781350135803f, 1.2674336433410645f},
    {0.28956881165504456f, -1.7713651657104492f,  -1.2846208810806274f,  0.5844641923904419f,
     1.0438387393951416f,  -2.4494504928588867f,  -3.298988103866577f,   0.6432400345802307f,
     -0.4720518887042999f, -1.7468777894973755f,  0.37281134724617004f,  0.5333074927330017f,
     -0.3188030421733856f, -0.12163157761096954f, -0.2910412549972534f,  -1.5196021795272827f,
     -1.6027628183364868f, 1.19685959815979f,     -0.25170767307281494f, -1.052169680595398f,
     0.28317683935165405f, -0.5033667683601379f,  -1.2919808626174927f,  0.4395679235458374f,
     0.8643815517425537f,  -0.458866149187088f,   -1.5626599788665771f},
    {-1.318591594696045f,   -0.35850411653518677f, -0.2654060423374176f, 0.6144440770149231f,
     -1.8196321725845337f,  0.2674891948699951f,   -0.3910615146160126f, -2.0058140754699707f,
     -0.662940263748169f,   0.19491688907146454f,  1.3985027074813843f,  1.1198753118515015f,
     0.04594462364912033f,  0.5186259746551514f,   -0.2797084450721741f, 0.28303858637809753f,
     -0.6933976411819458f,  -0.33326640725135803f, 0.5296240448951721f,  0.2312578707933426f,
     -0.6322343349456787f,  -0.14610148966312408f, -1.3064545392990112f, 0.41670748591423035f,
     -0.27268528938293457f, -1.261911392211914f,   0.9280825257301331f},
    {-0.08634684234857559f, 0.25144970417022705f, 0.5969604253768921f,  -0.3789229094982147f,
     -0.31528711318969727f, 0.3624107837677002f,  -0.5046941041946411f, 0.32413139939308167f,
     -0.47639375925064087f, -1.7672728300094604f, -2.3475069999694824f, 1.0032289028167725f,
     -0.8084052801132202f,  -0.5210087895393372f, -0.2324219048023224f, 1.1097180843353271f,
     -0.07670950889587402f, 0.3576517105102539f,  0.3243906497955322f,  -0.09228920191526413f,
     -0.06861243396997452f, -0.5277590155601501f, 1.0702650547027588f,  -1.005908489227295f,
     -1.5085432529449463f,  -0.6115129590034485f, 1.2016656398773193f},
    {0.1805708408355713f,   -0.35485556721687317f,  0.19297614693641663f, 1.1742888689041138f,
     -1.7752206325531006f,  -0.038190312683582306f, -0.4676866829395294f, 0.518927276134491f,
     -0.7686030268669128f,  -0.06551475077867508f,  0.06839347630739212f, -0.18728290498256683f,
     0.08363247662782669f,  -0.739007830619812f,    -0.5657260417938232f, 0.1681615114212036f,
     -0.25597837567329407f, -0.29309508204460144f,  1.0483089685440063f,  1.1238698959350586f,
     -0.5849592089653015f,  0.043838679790496826f,  0.30169588327407837f, 0.6744557023048401f,
     -0.7040639519691467f,  -1.2343436479568481f,   0.08125641942024231f},
    {0.049984343349933624f, 0.10059517621994019f,  -0.36820143461227417f, -0.027319857850670815f,
     -0.7997378706932068f,  0.8613498210906982f,   -0.6257189512252808f,  -0.37732863426208496f,
     0.3288063704967499f,   0.06929436326026917f,  -1.1084258556365967f,  0.4226823151111603f,
     0.3105185031890869f,   -1.4212019443511963f,  1.0088919401168823f,   0.21593233942985535f,
     -1.3146518468856812f,  0.6240741610527039f,   -0.00649821013212204f, 0.640976071357727f,
     0.4534863829612732f,   0.05030068755149841f,  0.22194302082061768f,  -0.9413199424743652f,
     0.1532224416732788f,   -0.41471245884895325f, -0.3833184838294983f},
    {0.155783012509346f,    0.10867027193307877f,  0.7316023111343384f,    0.6432899832725525f,
     0.0729793980717659f,   -0.22400164604187012f, -0.047985564917325974f, 0.7836864590644836f,
     0.14115169644355774f,  0.26759466528892517f,  0.6471426486968994f,    -0.03640495985746384f,
     -0.31584635376930237f, -1.3747700452804565f,  -0.3569580912590027f,   0.34142887592315674f,
     0.36109721660614014f,  0.5758394598960876f,   -0.1601959615945816f,   -0.015220730565488338f,
     0.22875969111919403f,  0.42810165882110596f,  -0.23159824311733246f,  0.6777046322822571f,
     0.02507716976106167f,  -0.13132518529891968f, -2.287485361099243f},
    {-0.29597994685173035f, 0.3569064140319824f,   0.5241266489028931f,   -0.3544048070907593f,
     -0.3236057162284851f,  -0.04216824844479561f, -0.34904685616493225f, 0.16427326202392578f,
     0.09338777512311935f,  0.15741325914859772f,  1.1651958227157593f,   0.9125494360923767f,
     0.25506579875946045f,  0.018382040783762932f, 0.0357368104159832f,   -0.14702284336090088f,
     0.22848282754421234f,  -1.1397219896316528f,  -1.1041468381881714f,  1.2422828674316406f,
     -0.38851940631866455f, -1.0222431421279907f,  -0.03890090808272362f, -1.0269732475280762f,
     0.38579994440078735f,  -0.5206705927848816f,  0.6017377972602844f},
    {-0.22860372066497803f, -0.04059358313679695f,  -0.24023191630840302f, -1.5668011903762817f,
     0.3270951807498932f,   0.24622079730033875f,   -1.0925275087356567f,  -0.23830050230026245f,
     0.8921022415161133f,   -1.7763572931289673f,   -1.3721948862075806f,  0.2523520886898041f,
     -1.087297797203064f,   -0.018680738285183907f, 1.0789917707443237f,   -0.09384801238775253f,
     -0.5016933083534241f,  -0.8197407722473145f,   -1.0104210376739502f,  0.252535343170166f,
     0.21203255653381348f,  -0.32185596227645874f,  -0.27701878547668457f, -2.1780571937561035f,
     -0.7903692722320557f,  0.3045909106731415f,    0.6668993830680847f},
    {0.6952981948852539f,   0.7014736533164978f,   -1.1730083227157593f,  0.2605065107345581f,
     -0.01578355021774769f, 0.19648627936840057f,  0.7038741707801819f,   -0.6499429941177368f,
     0.3107803165912628f,   -0.04349701851606369f, -0.30201414227485657f, -0.7753357887268066f,
     0.7990994453430176f,   1.0864295959472656f,   -0.02705942839384079f, 0.14456821978092194f,
     -1.0622564554214478f,  0.22346168756484985f,  0.3341071605682373f,   -0.15170413255691528f,
     -0.10320759564638138f, 0.5393366813659668f,   0.21013091504573822f,  -0.2519567310810089f,
     0.6340860724449158f,   0.4560944139957428f,   -1.6621898412704468f},
    {-0.09218611568212509f, -0.14584332704544067f, 0.5258335471153259f,  -0.09629978984594345f,
     0.6792685389518738f,   -0.8604337573051453f,  0.45404815673828125f, 0.4146856367588043f,
     -0.34533482789993286f, 0.6968462467193604f,   0.31546473503112793f, -0.1240922138094902f,
     1.2929426431655884f,   0.4835662245750427f,   0.46706148982048035f, 0.18251800537109375f,
     1.2331368923187256f,   0.1464158296585083f,   -1.1214021444320679f, 0.14695234596729279f,
     -0.305819034576416f,   0.7667470574378967f,   -0.302699476480484f,  0.9467767477035522f,
     -1.4240267276763916f,  -0.03215597942471504f, -1.67431640625f},
    {0.2665518820285797f,  -0.6029519438743591f,  -0.2933844327926636f, -1.8571927547454834f,
     -0.7413758635520935f, -0.20216868817806244f, 0.4765350818634033f,  0.7577788829803467f,
     0.6374168395996094f,  -1.209407091140747f,   -0.6698160171508789f, -1.092225193977356f,
     -1.080933928489685f,  -0.6975007653236389f,  0.5839443206787109f,  -0.6228697896003723f,
     0.03208554908633232f, -0.42742016911506653f, -0.642465353012085f,  -0.2195545732975006f,
     0.2511996328830719f,  0.13027732074260712f,  0.5656973123550415f,  -0.08402680605649948f,
     -0.9637924432754517f, 0.31229260563850403f,  1.2741525173187256f},
    {0.07276856899261475f,  -0.3207121789455414f,  -0.31468117237091064f, 0.14065127074718475f,
     -0.7981988191604614f,  0.008747976273298264f, 0.2908729612827301f,   -0.2437094748020172f,
     -0.09604909271001816f, 1.083778977394104f,    -0.41842472553253174f, 0.40953493118286133f,
     0.06495527923107147f,  0.43988415598869324f,  -0.12393496185541153f, -0.6757681369781494f,
     -0.43194279074668884f, -1.1437426805496216f,  0.7950645089149475f,   1.0001438856124878f,
     -1.08121657371521f,    0.5312570333480835f,   0.1890787035226822f,   1.1686843633651733f,
     -0.21070484817028046f, 1.3088446855545044f,   0.506237268447876f},
    {-0.5449094772338867f,  -0.13037505745887756f, 0.6597378849983215f,   -1.5753865242004395f,
     -0.32298901677131653f, 0.38550376892089844f,  -0.3429105281829834f,  -0.4612743556499481f,
     -1.6223361492156982f,  -0.6193867325782776f,  -0.3647874593734741f,  -0.0024560638703405857f,
     0.20899967849254608f,  0.25499391555786133f,  -0.38696324825286865f, 0.9722583293914795f,
     0.457276314496994f,    0.4902361333370209f,   -1.3726493120193481f,  1.6898012161254883f,
     0.37003448605537415f,  -1.0237537622451782f,  0.012926804833114147f, 0.430372953414917f,
     -0.4201366603374481f,  0.15860870480537415f,  1.1298577785491943f},
    {0.32631582021713257f,  0.3109513223171234f,  0.5348606705665588f,   0.6874906420707703f,
     0.5360797047615051f,   0.5359344482421875f,  0.8616214990615845f,   -1.1754707098007202f,
     0.9759108424186707f,   0.2919168770313263f,  -2.655745267868042f,   -0.06467463821172714f,
     0.7129175066947937f,   0.5371507406234741f,  0.1783169060945511f,   0.08514142036437988f,
     1.1096853017807007f,   -0.5939803719520569f, -0.5361456274986267f,  -0.9273769855499268f,
     0.5510435700416565f,   0.9304511547088623f,  -0.40899455547332764f, 0.4709521532058716f,
     -0.13090607523918152f, -0.3552192747592926f, -1.3616454601287842f},
    {-0.31621870398521423f,  -1.08525550365448f,    -0.8690944314002991f, 0.23607014119625092f,
     0.7192912697792053f,    -0.06320975720882416f, -0.2701771557331085f, 0.17517802119255066f,
     -0.016482822597026825f, 1.1354460716247559f,   1.6747933626174927f,  -1.4680414199829102f,
     0.007973678410053253f,  -1.0923441648483276f,  -0.7463298439979553f, -0.5828510522842407f,
     -1.0307791233062744f,   -1.3461881875991821f,  0.6170756816864014f,  -0.08449912816286087f,
     0.5898782014846802f,    -0.36143508553504944f, -2.4086050987243652f, -2.4530651569366455f,
     1.2295106649398804f,    -1.3787717819213867f,  1.051965594291687f},
    {0.42803236842155457f,  0.4720439314842224f,   0.5179005265235901f,  0.41607487201690674f,
     0.8561078310012817f,   1.1897302865982056f,   0.9863020777702332f,  -0.6766442060470581f,
     0.3025241494178772f,   -0.4975057542324066f,  1.1263149976730347f,  0.13725543022155762f,
     0.0873398706316948f,   -0.1073371097445488f,  -0.7282862663269043f, 0.26242735981941223f,
     -0.36505043506622314f, 0.9673899412155151f,   -1.2221698760986328f, 0.12913338840007782f,
     0.15401753783226013f,  0.5547971725463867f,   -0.8186179995536804f, -0.3143608868122101f,
     0.8808000683784485f,   -0.45033979415893555f, -2.4133687019348145f},
    {0.7302547693252563f,  -0.3550940454006195f,  -0.36637765169143677f, 0.02219962142407894f,
     0.8725991249084473f,  -0.8926898241043091f,  -2.404973268508911f,   -0.58492511510849f,
     0.23080642521381378f, -0.9681805968284607f,  -1.823767066001892f,   -0.9471415877342224f,
     0.3463056683540344f,  -1.819077730178833f,   0.8776997923851013f,   -0.03314059227705002f,
     -1.636474847793579f,  0.25490811467170715f,  0.6782028675079346f,   -1.194169044494629f,
     0.9006319046020508f,  -0.32893669605255127f, -0.20657789707183838f, -1.5691940784454346f,
     -0.5335386991500854f, -1.794597864151001f,   1.1407623291015625f},
    {0.5162220001220703f,  0.13721905648708344f,   0.19904661178588867f,  0.8717746138572693f,
     -0.7606700658798218f, 0.3804086744785309f,    -0.10438176244497299f, -0.2307015061378479f,
     -0.3583807647228241f, -0.3249048888683319f,   0.5706815719604492f,   0.6803319454193115f,
     0.32117897272109985f, -0.022851552814245224f, 0.04967192932963371f,  0.44342848658561707f,
     -1.2168923616409302f, -0.32522153854370117f,  0.6326643228530884f,   0.8397759199142456f,
     0.3124472498893738f,  -0.08642373979091644f,  -0.4496942460536957f,  -1.1210424900054932f,
     -2.541592836380005f,  -1.1710299253463745f,   -1.3894343376159668f},
    {-0.15711833536624908f, -0.15090548992156982f, 0.06518052518367767f, -0.34591951966285706f,
     0.5527834892272949f,   -0.5600116848945618f,  -0.5597736239433289f, 0.24554233253002167f,
     -0.16475450992584229f, -0.5362887382507324f,  -1.9630465507507324f, -0.5662556290626526f,
     -0.7409585118293762f,  0.6381353139877319f,   -0.9227699041366577f, -0.31166335940361023f,
     0.10804539173841476f,  0.5931008458137512f,   0.7713626623153687f,  0.3793318271636963f,
     -0.6568048000335693f,  -0.811900794506073f,   0.04738879203796387f, -0.19785332679748535f,
     -0.4937787652015686f,  -0.9442949891090393f,  1.4110652208328247f},
    {-0.17884252965450287f, -0.8241104483604431f,  -0.186096653342247f,   1.740181803703308f,
     -0.6467638611793518f,  0.8478975296020508f,   -0.4162881076335907f,  1.1271216869354248f,
     -1.3301271200180054f,  0.49308574199676514f,  0.7618433833122253f,   0.08617645502090454f,
     -0.9504993557929993f,  0.3969513475894928f,   -0.7420916557312012f,  -0.9280903935432434f,
     -0.398499995470047f,   0.6484017968177795f,   -0.27433493733406067f, 0.7258064150810242f,
     -1.0310019254684448f,  0.7680560350418091f,   -0.3212764859199524f,  0.5197011828422546f,
     -1.6410497426986694f,  -0.07263243943452835f, 0.5600675940513611f},
    {-1.098278284072876f,   0.2203533798456192f,   -0.6080019474029541f,  0.15635110437870026f,
     -0.8922737836837769f,  0.7220554947853088f,   -0.6385284066200256f,  -1.8898078203201294f,
     -0.2498299777507782f,  -0.8382251262664795f,  -0.4796108603477478f,  -0.22875100374221802f,
     -0.18621395528316498f, 0.8490727543830872f,   -0.37218838930130005f, 0.34387439489364624f,
     -0.05256190896034241f, -0.7391558289527893f,  -0.6998267769813538f,  -0.727570116519928f,
     -0.502129316329956f,   1.0021437406539917f,   0.6236314177513123f,   0.1859201192855835f,
     0.524726152420044f,    -0.21489465236663818f, 2.0588626861572266f},
    {-0.8011769652366638f,  -0.6309773921966553f,  -0.25897905230522156f,  0.35801181197166443f,
     -1.0692235231399536f,  -1.7256510257720947f,  1.1402064561843872f,    -0.875709593296051f,
     0.09072485566139221f,  -0.03662396967411041f, 1.739397644996643f,     -0.16980670392513275f,
     0.3350709080696106f,   0.41186341643333435f,  -2.152013063430786f,    -1.1305989027023315f,
     -0.5063539147377014f,  0.5406898856163025f,   -0.033066146075725555f, 0.9491114616394043f,
     -0.12341145426034927f, -0.7812929153442383f,  -0.5620728731155396f,   -1.104082703590393f,
     0.891664445400238f,    0.18757539987564087f,  0.24130617082118988f},
    {0.30374276638031006f,  -0.391342431306839f,   -0.6782013177871704f,  -0.0868297815322876f,
     0.5021790862083435f,   -0.4492615759372711f,  0.2879564166069031f,   -0.24340565502643585f,
     1.037811279296875f,    -1.0938149690628052f,  -0.7770286798477173f,  0.4382173418998718f,
     -0.21532730758190155f, -2.0708975791931152f,  -0.25636130571365356f, -0.18200963735580444f,
     0.32031750679016113f,  -1.5053268671035767f,  0.8919041156768799f,   -1.3403011560440063f,
     0.5875803828239441f,   -0.20946954190731049f, -1.4277355670928955f,  -1.0740935802459717f,
     1.005569577217102f,    -0.36658021807670593f, 0.2534084618091583f},
    {-1.6778022050857544f,  -0.7587025165557861f,  0.5866381525993347f,  0.83607017993927f,
     0.26297882199287415f,  -0.3393227756023407f,  0.483562707901001f,   0.15180270373821259f,
     -0.9304233193397522f,  0.4456828832626343f,   -0.6543467044830322f, 0.45921504497528076f,
     -0.10647960752248764f, -0.48714861273765564f, -1.1152526140213013f, -0.42530348896980286f,
     0.7793528437614441f,   1.3924766778945923f,   0.6238749027252197f,  -0.40350639820098877f,
     0.5030384063720703f,   0.25512683391571045f,  -1.0644776821136475f, -0.1469733566045761f,
     0.19052010774612427f,  0.3407697379589081f,   0.5768094062805176f},
    {-0.21697302162647247f, 0.10920516401529312f, -0.030713122338056564f, -0.5413736701011658f,
     0.8781754970550537f,   0.1778411567211151f,  0.994784951210022f,     0.2691263258457184f,
     0.6006945371627808f,   0.4006379246711731f,  0.0922597125172615f,    -0.6958930492401123f,
     0.08110789209604263f,  -0.2549785375595093f, 0.5001078844070435f,    0.06460914760828018f,
     0.40524014830589294f,  0.4202789068222046f,  -0.5892205238342285f,   -1.1217256784439087f,
     0.46157440543174744f,  0.5322569608688354f,  0.284318208694458f,     0.19210204482078552f,
     1.431186556816101f,    -0.755839467048645f,  -2.6209800243377686f},
    {0.18789878487586975f,  -0.7337517142295837f,  0.6758219599723816f,  -0.3534472584724426f,
     0.4724721908569336f,   -0.13335323333740234f, -0.5134307742118835f, 1.2404496669769287f,
     -0.5829557180404663f,  -0.4177408218383789f,  0.2343108355998993f,  -1.4883877038955688f,
     0.734470009803772f,    -0.09601832926273346f, 0.6187371611595154f,  0.2815077304840088f,
     0.041598834097385406f, -1.3406769037246704f,  0.3881549835205078f,  -0.14455942809581757f,
     0.45169615745544434f,  0.4216845631599426f,   -0.6470518112182617f, -0.04341861605644226f,
     -0.29491862654685974f, 0.16767941415309906f,  0.6235912442207336f},
    {0.4389640986919403f,   -0.6205452680587769f,  -0.060405418276786804f, 0.5708395838737488f,
     0.44878214597702026f,  -0.4663281738758087f,  0.47717660665512085f,   0.7032758593559265f,
     0.0889941155910492f,   -0.6314076781272888f,  0.4052197337150574f,    -0.16732627153396606f,
     -2.347949266433716f,   -1.6865479946136475f,  0.6840983629226685f,    -2.259549856185913f,
     -0.06117713078856468f, 0.9421408176422119f,   -1.550619125366211f,    0.3679421842098236f,
     -0.3248782157897949f,  -0.7610714435577393f,  0.6883617639541626f,    -0.5044940710067749f,
     0.7269536256790161f,   -0.14955174922943115f, 0.12531760334968567f},
    {-0.14299213886260986f, -0.7427971959114075f, -0.6584749817848206f,  -1.3395836353302002f,
     -0.7524523735046387f,  -0.6279667615890503f, -1.6550644636154175f,  1.2864973545074463f,
     0.2604720890522003f,   -0.3741243779659271f, -0.23351308703422546f, -0.6440819501876831f,
     0.6212821006774902f,   0.2810198664665222f,  0.4064668118953705f,   -0.07804011553525925f,
     -1.7875094413757324f,  -1.2010533809661865f, 1.0457557439804077f,   -0.44369107484817505f,
     0.7124083638191223f,   0.46501439809799194f, 0.35629111528396606f,  -0.8077438473701477f,
     -0.6609893441200256f,  -0.7251784801483154f, 0.8013783097267151f},
    {0.43936511874198914f,  0.4264828562736511f,   0.2343505471944809f,   -0.20901551842689514f,
     1.1403207778930664f,   -0.41524648666381836f, 0.20149549841880798f,  0.5899164080619812f,
     0.6144310832023621f,   -0.2387489527463913f,  -0.39722004532814026f, -0.6796457171440125f,
     -0.05467142537236214f, 0.8239374756813049f,   -0.14840349555015564f, -0.4798646867275238f,
     0.34527337551116943f,  0.33607789874076843f,  -0.2665919363498688f,  -0.2168537825345993f,
     -0.5251257419586182f,  -0.5082531571388245f,  0.44135475158691406f,  -0.793363630771637f,
     0.45710882544517517f,  -0.20792286098003387f, -1.9335087537765503f}
};

const float biases2[27] = {0.2258254438638687f,   -0.27154192328453064f, 0.5441063642501831f,
                           -0.5374934077262878f,  0.26325783133506775f,  0.03258205205202103f,
                           -0.20963779091835022f, -0.252335786819458f,   -0.038178157061338425f,
                           -0.19534924626350403f, 0.008235443383455276f, 0.04844918102025986f,
                           0.023528702557086945f, 0.43591633439064026f,  0.21132051944732666f,
                           0.2980188727378845f,   -0.25389546155929565f, -0.16538071632385254f,
                           0.38777956366539f,     -0.06917347759008408f, -0.47721463441848755f,
                           -0.6652799844741821f,  0.4393789768218994f,   -0.4800017476081848f,
                           0.2376561313867569f,   -0.5457087159156799f,  -0.21464133262634277f};

// --- Vocabulary Mappings ---
#define INPUT_VOCAB_SIZE 29
#define OUTPUT_VOCAB_SIZE 27
#define SEQUENCE_LENGTH 3
#define HIDDEN_LAYER_SIZE 32

static inline int map_input_char_to_index(char c)
{
    char lower_c = std::tolower(c);
    // a-z -> 0-25
    if (lower_c >= 'a' && lower_c <= 'z')
        return lower_c - 'a';
    // space -> 26
    if (c == ' ')
        return 26;
    // 0-9 -> 27
    if (std::isdigit(c))
        return 27;
    // others -> 28
    return 28;
}

static const char output_index_to_char[OUTPUT_VOCAB_SIZE] = {'a', 'b', 'c', 'd', 'e', 'f', 'g',
                                                             'h', 'i', 'j', 'k', 'l', 'm', 'n',
                                                             'o', 'p', 'q', 'r', 's', 't', 'u',
                                                             'v', 'w', 'x', 'y', 'z', ' '};

// --- Prediction Function ---
// Fills probabilities_out[27] with probabilities for a-z and space
// probabilities_out[0] is for 'a', [1] for 'b', ..., [25] for 'z', [26] for ' '
void predict_next_char_probs(
    char prev1, char prev2, char prev3, float probabilities_out[OUTPUT_VOCAB_SIZE]
)
{
    float input_vector[SEQUENCE_LENGTH * INPUT_VOCAB_SIZE] = {0.0f};
    char sequence[SEQUENCE_LENGTH] = {prev3, prev2, prev1};
    // Create one-hot input vector
    for (int i = 0; i < SEQUENCE_LENGTH; ++i)
    {
        int index = map_input_char_to_index(sequence[i]);
        if (index >= 0 && index < INPUT_VOCAB_SIZE)
            input_vector[i * INPUT_VOCAB_SIZE + index] = 1.0f;
    }

    // Hidden layer forward pass (Input -> Hidden) + ReLU
    float hidden_output[HIDDEN_LAYER_SIZE];
    for (int j = 0; j < HIDDEN_LAYER_SIZE; ++j)
    {
        float sum = biases1[j];
        for (int i = 0; i < SEQUENCE_LENGTH * INPUT_VOCAB_SIZE; ++i)
            sum += input_vector[i] * weights1[i][j];
        hidden_output[j] = std::max(0.0f, sum);
    }

    // Output layer forward pass (Hidden -> Output) - gives logits
    float output_logits[OUTPUT_VOCAB_SIZE];
    for (int k = 0; k < OUTPUT_VOCAB_SIZE; ++k)
    {
        float sum = biases2[k];
        for (int j = 0; j < HIDDEN_LAYER_SIZE; ++j) sum += hidden_output[j] * weights2[j][k];
        output_logits[k] = sum;
    }

    // Softmax to get probabilities
    float max_logit = output_logits[0];
    for (int k = 1; k < OUTPUT_VOCAB_SIZE; ++k)
        if (output_logits[k] > max_logit)
            max_logit = output_logits[k];

    float exp_sum = 0.0f;
    for (int k = 0; k < OUTPUT_VOCAB_SIZE; ++k)
    {
        probabilities_out[k] = std::exp2f(output_logits[k] - max_logit);
        exp_sum += probabilities_out[k];
    }

    // Normalize to get probabilities
    if (exp_sum > 0.0f)
    {
        for (int k = 0; k < OUTPUT_VOCAB_SIZE; ++k) probabilities_out[k] /= exp_sum;
    }
    else
    { // Handle potential issue, e.g., all logits are -infinity (very
      // unlikely)
        // Could set uniform probability or 0, setting 0 for safety
        for (int k = 0; k < OUTPUT_VOCAB_SIZE; ++k) probabilities_out[k] = 0.0f;
    }
}

#endif // PREDICTOR_H
